svm_type c_svc
kernel_type rbf
gamma 0.00520833
nr_class 2
total_sv 31
rho 0.277778
label 1 -1
nr_sv 13 18
SV
1 0:45 1:22 2:137 3:40 4:17 5:136 6:40 7:17 8:138 9:35 10:11 11:136 12:35 13:11 14:134 15:35 16:11 17:134 18:36 19:10 20:134 21:36 22:10 23:134 24:45 25:23 26:134 27:40 28:17 29:134 30:40 31:17 32:137 33:35 34:11 35:137 36:35 37:11 38:136 39:35 40:11 41:134 42:35 43:11 44:134 45:36 46:9 47:135 48:38 49:21 50:133 51:40 52:17 53:133 54:40 55:17 56:137 57:35 58:11 59:137 60:35 61:11 62:136 63:36 64:9 65:136 66:36 67:9 68:135 69:30 70:4 71:134 72:40 73:17 74:134 75:40 76:17 77:134 78:43 79:13 80:137 81:35 82:11 83:137 84:36 85:9 86:135 87:36 88:9 89:135 90:30 91:4 92:135 93:30 94:4 95:135 96:43 97:13 98:137 99:35 100:11 101:136 102:36 103:9 104:137 105:36 106:9 107:136 108:30 109:4 110:130 111:30 112:4 113:133 114:0 115:0 116:135 117:0 118:0 119:135 120:43 121:13 122:137 123:36 124:9 125:135 126:36 127:9 128:137 129:30 130:4 131:137 132:30 133:4 134:134 135:0 136:0 137:132 138:0 139:0 140:133 141:0 142:0 143:132 144:42 145:9 146:135 147:30 148:4 149:134 150:30 151:4 152:135 153:0 154:0 155:136 156:0 157:0 158:135 159:0 160:0 161:133 162:0 163:0 164:133 165:0 166:0 167:132 168:42 169:9 170:136 171:30 172:4 173:134 174:30 175:4 176:133 177:30 178:4 179:134 180:30 181:4 182:133 183:0 184:0 185:133 186:30 187:4 188:134 189:0 190:0 191:133 192:-1 
1 0:43 1:14 2:131 3:35 4:12 5:133 6:35 7:12 8:133 9:19 10:15 11:133 12:19 13:15 14:132 15:19 16:15 17:133 18:13 19:14 20:131 21:170 22:12 23:131 24:19 25:15 26:133 27:19 28:15 29:135 30:19 31:15 32:135 33:19 34:15 35:134 36:19 37:15 38:134 39:19 40:15 41:134 42:19 43:15 44:133 45:0 46:12 47:130 48:13 49:17 50:133 51:13 52:17 53:135 54:13 55:17 56:135 57:19 58:15 59:133 60:19 61:15 62:133 63:30 64:16 65:131 66:19 67:15 68:133 69:0 70:12 71:132 72:19 73:15 74:134 75:19 76:15 77:135 78:19 79:15 80:135 81:19 82:15 83:135 84:19 85:15 86:136 87:25 88:11 89:134 90:24 91:10 92:134 93:6 94:10 95:132 96:19 97:15 98:134 99:19 100:15 101:134 102:19 103:15 104:134 105:19 106:15 107:134 108:19 109:15 110:135 111:25 112:12 113:133 114:24 115:10 116:133 117:20 118:6 119:131 120:25 121:12 122:133 123:25 124:12 125:131 126:25 127:12 128:131 129:19 130:15 131:133 132:19 133:15 134:134 135:19 136:15 137:134 138:24 139:10 140:133 141:30 142:4 143:133 144:25 145:12 146:133 147:25 148:12 149:132 150:25 151:12 152:132 153:19 154:15 155:134 156:19 157:15 158:134 159:19 160:15 161:135 162:25 163:11 164:134 165:30 166:4 167:135 168:34 169:16 170:131 171:25 172:12 173:131 174:25 175:12 176:132 177:19 178:15 179:133 180:19 181:15 182:133 183:19 184:15 185:133 186:25 187:12 188:132 189:30 190:4 191:134 192:-1 
1 0:173 1:8 2:126 3:6 4:10 5:123 6:0 7:13 8:121 9:11 10:17 11:122 12:11 13:16 14:125 15:13 16:14 17:125 18:24 19:10 20:123 21:36 22:10 23:125 24:156 25:10 26:128 27:173 28:8 29:127 30:170 31:12 32:126 33:0 34:12 35:125 36:6 37:10 38:125 39:6 40:10 41:126 42:20 43:6 44:123 45:30 46:4 47:124 48:173 49:8 50:129 51:173 52:8 53:130 54:0 55:12 56:131 57:0 58:12 59:128 60:6 61:10 62:125 63:6 64:10 65:125 66:20 67:6 68:123 69:30 70:4 71:124 72:13 73:14 74:131 75:13 76:14 77:132 78:11 79:16 80:129 81:11 82:16 83:129 84:13 85:14 86:126 87:13 88:14 89:124 90:20 91:6 92:123 93:20 94:6 95:126 96:19 97:15 98:132 99:19 100:15 101:132 102:13 103:17 104:132 105:19 106:16 107:130 108:13 109:14 110:129 111:13 112:14 113:127 114:20 115:6 116:125 117:20 118:6 119:127 120:19 121:15 122:134 123:19 124:15 125:133 126:19 127:16 128:131 129:19 130:16 131:130 132:13 133:14 134:130 135:24 136:10 137:128 138:20 139:6 140:127 141:20 142:6 143:127 144:19 145:15 146:133 147:19 148:15 149:134 150:19 151:16 152:131 153:19 154:16 155:130 156:24 157:10 158:128 159:24 160:10 161:129 162:20 163:6 164:128 165:20 166:6 167:126 168:25 169:12 170:125 171:25 172:12 173:129 174:25 175:12 176:129 177:25 178:12 179:129 180:24 181:10 182:129 183:24 184:10 185:129 186:30 187:4 188:126 189:30 190:4 191:124 192:-1 
1 0:0 1:0 2:121 3:30 4:4 5:121 6:30 7:4 8:122 9:36 10:10 11:125 12:36 13:10 14:126 15:35 16:12 17:127 18:35 19:12 20:127 21:25 22:12 23:128 24:30 25:4 26:122 27:30 28:4 29:121 30:36 31:10 32:123 33:36 34:10 35:124 36:35 37:12 38:125 39:35 40:12 41:126 42:35 43:12 44:126 45:25 46:12 47:128 48:30 49:4 50:122 51:30 52:4 53:123 54:36 55:10 56:125 57:36 58:10 59:126 60:35 61:12 62:125 63:35 64:12 65:124 66:34 67:17 68:123 69:34 70:16 71:125 72:36 73:10 74:123 75:36 76:10 77:123 78:35 79:13 80:122 81:35 82:13 83:122 84:34 85:17 86:122 87:34 88:17 89:123 90:34 91:16 92:124 93:34 94:16 95:124 96:35 97:12 98:124 99:35 100:12 101:123 102:34 103:17 104:120 105:34 106:17 107:119 108:35 109:23 110:121 111:38 112:22 113:125 114:38 115:22 116:127 117:38 118:22 119:126 120:35 121:12 122:125 123:34 124:16 125:126 126:34 127:16 128:125 129:34 130:17 131:123 132:35 133:23 134:123 135:38 136:23 137:124 138:38 139:22 140:125 141:38 142:22 143:126 144:43 145:14 146:128 147:43 148:14 149:129 150:40 151:18 152:130 153:40 154:18 155:128 156:40 157:18 158:127 159:34 160:16 161:128 162:34 163:16 164:124 165:34 166:16 167:124 168:43 169:14 170:127 171:43 172:14 173:128 174:43 175:14 176:131 177:43 178:14 179:130 180:40 181:18 182:128 183:35 184:12 185:129 186:35 187:12 188:126 189:35 190:12 191:123 192:-1 
1 0:22 1:30 2:127 3:22 4:30 5:128 6:26 7:28 8:128 9:26 10:28 11:129 12:30 13:24 14:127 15:30 16:24 17:127 18:35 19:26 20:128 21:34 22:28 23:127 24:22 25:29 26:130 27:26 28:28 29:129 30:26 31:28 32:128 33:23 34:24 35:128 36:30 37:20 38:125 39:30 40:20 41:125 42:34 43:16 44:127 45:35 46:26 47:129 48:23 49:24 50:129 51:23 52:24 53:129 54:23 55:24 56:128 57:30 58:16 59:125 60:30 61:16 62:125 63:30 64:16 65:126 66:25 67:12 68:128 69:30 70:20 71:130 72:23 73:24 74:129 75:23 76:24 77:129 78:30 79:16 80:126 81:30 82:16 83:125 84:25 85:12 86:125 87:25 88:12 89:126 90:25 91:12 92:127 93:30 94:16 95:128 96:30 97:16 98:127 99:30 100:16 101:126 102:30 103:16 104:126 105:30 106:16 107:125 108:30 109:16 110:125 111:30 112:16 113:126 114:30 115:16 116:126 117:30 118:16 119:126 120:30 121:16 122:125 123:30 124:16 125:124 126:30 127:17 128:123 129:30 130:16 131:124 132:30 133:16 134:125 135:30 136:16 137:126 138:30 139:16 140:127 141:30 142:16 143:128 144:19 145:16 146:126 147:19 148:16 149:125 150:30 151:17 152:123 153:30 154:16 155:124 156:30 157:20 158:125 159:30 160:20 161:126 162:23 163:24 164:129 165:23 166:24 167:129 168:19 169:16 170:124 171:19 172:16 173:124 174:30 175:17 176:123 177:30 178:16 179:124 180:30 181:16 182:124 183:30 184:21 185:124 186:23 187:24 188:127 189:23 190:24 191:128 192:-1 
1 0:32 1:30 2:135 3:32 4:26 5:136 6:30 7:23 8:134 9:30 10:19 11:134 12:30 13:15 14:135 15:35 16:11 17:134 18:35 19:12 20:133 21:35 22:11 23:136 24:32 25:34 26:136 27:32 28:30 29:136 30:32 31:27 32:134 33:30 34:23 35:133 36:30 37:19 38:135 39:34 40:15 41:135 42:35 43:12 44:132 45:35 46:11 47:136 48:32 49:34 50:135 51:32 52:30 53:134 54:32 55:27 56:133 57:30 58:23 59:133 60:30 61:19 62:134 63:34 64:15 65:135 66:34 67:15 68:133 69:35 70:11 71:135 72:32 73:31 74:133 75:32 76:27 77:131 78:32 79:27 80:132 81:30 82:23 83:133 84:35 85:21 86:134 87:34 88:15 89:134 90:35 91:11 92:135 93:35 94:11 95:134 96:23 97:23 98:134 99:30 100:19 101:131 102:30 103:20 104:130 105:34 106:16 107:131 108:35 109:12 110:133 111:35 112:11 113:136 114:42 115:9 116:136 117:50 118:6 119:132 120:30 121:20 122:129 123:30 124:19 125:131 126:34 127:15 128:133 129:34 130:15 131:134 132:35 133:11 134:134 135:43 136:13 137:134 138:42 139:10 140:132 141:50 142:6 143:133 144:30 145:24 146:130 147:30 148:23 149:131 150:35 151:21 152:133 153:35 154:21 155:135 156:40 157:17 158:134 159:43 160:13 161:133 162:42 163:10 164:132 165:50 166:6 167:129 168:32 169:27 170:134 171:35 172:25 173:133 174:35 175:25 176:133 177:38 178:21 179:134 180:38 181:21 182:133 183:40 184:17 185:133 186:43 187:13 188:134 189:42 190:10 191:126 192:-1 
1 0:20 1:6 2:124 3:20 4:6 5:124 6:20 7:6 8:122 9:20 10:6 11:124 12:30 13:4 14:124 15:50 16:6 17:122 18:42 19:10 20:122 21:30 22:4 23:121 24:20 25:6 26:126 27:36 28:10 29:127 30:36 31:10 32:123 33:36 34:10 35:123 36:42 37:10 38:122 39:42 40:10 41:122 42:43 43:14 44:124 45:42 46:10 47:123 48:24 49:10 50:126 51:36 52:10 53:129 54:35 55:12 56:125 57:42 58:10 59:124 60:43 61:15 62:122 63:43 64:15 65:122 66:40 67:19 68:122 69:40 70:19 71:124 72:24 73:10 74:125 75:35 76:12 77:128 78:34 79:16 80:126 81:43 82:14 83:126 84:40 85:19 86:124 87:40 88:19 89:123 90:38 91:23 92:121 93:38 94:23 95:122 96:36 97:10 98:125 99:35 100:12 101:128 102:34 103:16 104:125 105:40 106:18 107:127 108:40 109:18 110:125 111:38 112:22 113:128 114:39 115:29 116:125 117:39 118:29 119:122 120:36 121:11 122:119 123:36 124:10 125:122 126:43 127:14 128:125 129:43 130:14 131:126 132:40 133:18 134:130 135:35 136:22 137:129 138:35 139:26 140:128 141:35 142:26 143:126 144:36 145:11 146:118 147:36 148:11 149:119 150:43 151:15 152:123 153:43 154:14 155:126 156:40 157:18 158:130 159:35 160:22 161:127 162:35 163:26 164:126 165:35 166:27 167:124 168:35 169:13 170:119 171:35 172:13 173:118 174:35 175:13 176:121 177:43 178:14 179:125 180:40 181:18 182:128 183:35 184:22 185:125 186:35 187:27 188:124 189:35 190:27 191:122 192:-1 
1 0:30 1:17 2:118 3:34 4:17 5:120 6:35 7:23 8:123 9:38 10:23 11:123 12:35 13:27 14:125 15:35 16:27 17:123 18:35 19:27 20:122 21:35 22:27 23:122 24:30 25:26 26:116 27:35 28:28 29:117 30:35 31:23 32:121 33:38 34:23 35:122 36:35 37:27 38:124 39:35 40:27 41:122 42:35 43:27 44:122 45:35 46:27 47:123 48:35 49:36 50:119 51:34 52:31 53:117 54:35 55:27 56:121 57:35 58:23 59:122 60:30 61:25 62:121 63:30 64:25 65:121 66:30 67:21 68:120 69:30 70:21 71:120 72:35 73:40 74:121 75:35 76:36 77:122 78:35 79:28 80:118 81:35 82:24 83:119 84:30 85:26 86:118 87:30 88:26 89:118 90:30 91:22 92:118 93:30 94:21 95:119 96:34 97:44 98:123 99:35 100:39 101:123 102:34 103:30 104:118 105:35 106:28 107:118 108:30 109:26 110:117 111:30 112:26 113:117 114:30 115:22 116:117 117:30 118:22 119:118 120:34 121:44 122:122 123:34 124:44 125:122 126:34 127:30 128:120 129:35 130:28 131:120 132:30 133:26 134:118 135:30 136:26 137:118 138:30 139:22 140:118 141:30 142:22 143:118 144:35 145:40 146:121 147:35 148:40 149:120 150:35 151:36 152:121 153:34 154:30 155:120 156:34 157:30 158:120 159:35 160:28 161:120 162:30 163:22 164:118 165:30 166:22 167:118 168:35 169:36 170:121 171:35 172:36 173:121 174:35 175:36 176:120 177:35 178:36 179:121 180:34 181:30 182:120 183:34 184:30 185:120 186:30 187:26 188:119 189:30 190:21 191:120 192:-1 
1 0:93 1:25 2:111 3:93 4:25 5:111 6:93 7:25 8:111 9:87 10:21 11:108 12:87 13:21 14:109 15:80 16:21 17:108 18:73 19:21 20:109 21:70 22:14 23:109 24:93 25:25 26:110 27:96 28:23 29:111 30:96 31:23 32:111 33:87 34:21 35:107 36:87 37:21 38:109 39:80 40:21 41:109 42:79 43:26 44:109 45:80 46:21 47:108 48:93 49:25 50:111 51:96 52:23 53:111 54:96 55:23 56:111 57:87 58:21 59:108 60:87 61:21 62:109 63:79 64:25 65:110 66:79 67:26 68:109 69:79 70:26 71:109 72:87 73:23 74:110 75:87 76:23 77:109 78:87 79:23 80:109 81:87 82:24 83:107 84:87 85:24 86:108 87:87 88:24 89:108 90:87 91:24 92:108 93:87 94:24 95:108 96:87 97:23 98:109 99:87 100:23 101:109 102:87 103:24 104:108 105:87 106:24 107:107 108:87 109:24 110:107 111:87 112:24 113:108 114:87 115:24 116:108 117:87 118:23 119:109 120:80 121:28 122:110 123:80 124:28 125:111 126:80 127:28 128:110 129:85 130:28 131:109 132:85 133:28 134:109 135:85 136:28 137:109 138:85 139:28 140:110 141:87 142:23 143:110 144:80 145:28 146:111 147:80 148:27 149:112 150:80 151:34 152:113 153:84 154:34 155:112 156:84 157:34 158:111 159:85 160:28 161:110 162:85 163:28 164:111 165:87 166:23 167:111 168:80 169:34 170:111 171:80 172:34 173:112 174:79 175:38 176:113 177:79 178:38 179:113 180:79 181:39 182:112 183:84 184:34 185:111 186:84 187:34 188:112 189:85 190:27 191:112 192:-1 
1 0:80 1:13 2:119 3:70 4:13 5:120 6:70 7:12 8:123 9:70 10:12 11:124 12:66 13:10 14:123 15:66 16:10 17:124 18:80 19:12 20:125 21:80 22:13 23:122 24:80 25:13 26:116 27:80 28:13 29:117 30:80 31:13 32:121 33:70 34:12 35:123 36:66 37:10 38:123 39:66 40:10 41:122 42:80 43:12 44:123 45:80 46:13 47:122 48:90 49:13 50:117 51:90 52:13 53:117 54:90 55:13 56:120 57:80 58:13 59:122 60:83 61:8 62:122 63:83 64:9 65:118 66:96 67:11 68:120 69:96 70:11 71:119 72:87 73:19 74:118 75:87 76:19 77:119 78:90 79:13 80:121 81:90 82:13 83:122 84:83 85:8 86:123 87:83 88:9 89:118 90:96 91:11 92:118 93:96 94:11 95:118 96:87 97:21 98:120 99:79 100:23 101:122 102:80 103:19 104:122 105:80 106:13 107:121 108:83 109:8 110:121 111:75 112:4 113:118 114:110 115:7 116:117 117:110 118:7 119:117 120:80 121:26 122:120 123:79 124:23 125:122 126:80 127:19 128:123 129:80 130:13 131:122 132:83 133:8 134:121 135:75 136:4 137:119 138:120 139:4 140:117 141:110 142:7 143:116 144:79 145:23 146:121 147:79 148:23 149:122 150:80 151:19 152:123 153:80 154:13 155:122 156:83 157:8 158:121 159:75 160:4 161:119 162:75 163:4 164:116 165:75 166:4 167:115 168:79 169:23 170:124 171:80 172:19 173:124 174:80 175:13 176:122 177:80 178:13 179:120 180:83 181:9 182:120 183:75 184:4 185:119 186:75 187:4 188:117 189:75 190:4 191:115 192:-1 
1 0:75 1:4 2:120 3:110 4:6 5:119 6:110 7:6 8:118 9:110 10:6 11:119 12:110 13:6 14:119 15:96 16:11 17:117 18:96 19:11 20:120 21:90 22:12 23:123 24:75 25:4 26:120 27:110 28:6 29:118 30:110 31:7 32:117 33:110 34:7 35:117 36:110 37:7 38:117 39:96 40:11 41:119 42:96 43:11 44:121 45:90 46:13 47:122 48:75 49:4 50:120 51:110 52:6 53:119 54:110 55:6 56:118 57:110 58:6 59:118 60:110 61:6 62:119 63:83 64:9 65:120 66:83 67:9 68:120 69:83 70:9 71:120 72:75 73:4 74:120 75:110 76:6 77:120 78:110 79:6 80:120 81:110 82:6 83:120 84:96 85:11 86:121 87:83 88:9 89:119 90:83 91:9 92:118 93:83 94:9 95:118 96:83 97:8 98:121 99:96 100:11 101:120 102:96 103:11 104:119 105:96 106:11 107:119 108:96 109:11 110:119 111:83 112:9 113:118 114:80 115:13 116:119 117:70 118:13 119:120 120:83 121:9 122:120 123:96 124:11 125:119 126:96 127:11 128:119 129:96 130:11 131:119 132:90 133:13 134:118 135:80 136:13 137:119 138:80 139:13 140:120 141:70 142:13 143:121 144:90 145:13 146:119 147:90 148:13 149:119 150:90 151:13 152:120 153:90 154:13 155:120 156:87 157:19 158:121 159:80 160:19 161:120 162:80 163:19 164:122 165:73 166:19 167:123 168:90 169:13 170:119 171:90 172:13 173:120 174:90 175:13 176:120 177:90 178:13 179:120 180:87 181:19 182:120 183:80 184:13 185:120 186:80 187:19 188:123 189:80 190:13 191:122 192:-1 
1 0:87 1:18 2:129 3:80 4:18 5:129 6:80 7:18 8:128 9:80 10:18 11:127 12:87 13:18 14:128 15:90 16:12 17:127 18:103 19:14 20:129 21:103 22:14 23:128 24:90 25:12 26:126 27:90 28:12 29:126 30:90 31:12 32:126 33:90 34:12 35:126 36:101 37:16 38:126 39:103 40:14 41:127 42:103 43:14 44:128 45:103 46:14 47:128 48:103 49:14 50:126 51:103 52:14 53:126 54:103 55:14 56:127 57:103 58:14 59:127 60:109 61:16 62:128 63:115 64:12 65:129 66:115 67:12 68:130 69:109 70:16 71:131 72:114 73:10 74:125 75:114 76:10 77:125 78:115 79:12 80:127 81:120 82:16 83:129 84:120 85:16 86:129 87:120 88:16 89:129 90:120 91:19 92:133 93:111 94:19 95:133 96:114 97:10 98:125 99:114 100:10 101:125 102:125 103:12 104:127 105:124 106:16 107:129 108:125 109:22 110:130 111:120 112:20 113:129 114:120 115:23 116:132 117:113 118:23 119:132 120:114 121:10 122:125 123:115 124:12 125:126 126:124 127:16 128:128 129:125 130:22 131:130 132:125 133:25 134:134 135:120 136:23 137:131 138:116 139:29 140:131 141:112 142:29 143:133 144:114 145:10 146:127 147:115 148:12 149:127 150:120 151:16 152:129 153:120 154:19 155:131 156:122 157:26 158:137 159:122 160:26 161:136 162:116 163:32 164:136 165:113 166:30 167:134 168:114 169:10 170:125 171:115 172:12 173:127 174:120 175:16 176:129 177:120 178:23 179:133 180:122 181:26 182:136 183:116 184:32 185:137 186:115 187:34 188:135 189:111 190:37 191:137 192:-1 
1 0:120 1:15 2:139 3:114 4:9 5:138 6:110 7:6 8:137 9:75 10:4 11:136 12:80 13:11 14:134 15:80 16:17 17:135 18:87 19:17 20:138 21:87 22:17 23:138 24:115 25:11 26:139 27:114 28:9 29:136 30:120 31:4 32:134 33:110 34:6 35:136 36:83 37:8 38:133 39:80 40:11 41:134 42:90 43:11 44:135 45:101 46:15 47:136 48:114 49:9 50:137 51:114 52:9 53:135 54:115 55:11 56:136 57:114 58:9 59:135 60:110 61:6 62:134 63:96 64:10 65:133 66:103 67:13 68:136 69:103 70:13 71:137 72:96 73:9 74:136 75:110 76:6 77:134 78:115 79:11 80:136 81:115 82:11 83:136 84:110 85:6 86:133 87:110 88:6 89:131 90:110 91:6 92:132 93:103 94:13 95:135 96:80 97:11 98:135 99:96 100:10 101:134 102:103 103:13 104:135 105:103 106:13 107:134 108:83 109:8 110:130 111:83 112:8 113:129 114:96 115:10 116:132 117:103 118:13 119:135 120:80 121:12 122:133 123:90 124:12 125:133 126:90 127:12 128:133 129:96 130:10 131:131 132:96 133:10 134:129 135:96 136:10 137:129 138:103 139:13 140:134 141:101 142:15 143:136 144:87 145:17 146:134 147:87 148:17 149:135 150:87 151:17 152:135 153:101 154:15 155:134 156:101 157:15 158:132 159:103 160:17 161:132 162:106 163:21 164:136 165:106 166:20 167:137 168:96 169:19 170:135 171:96 172:19 173:135 174:96 175:19 176:135 177:96 178:19 179:135 180:103 181:17 182:136 183:106 184:21 185:136 186:111 187:24 188:138 189:111 190:24 191:138 192:-1 
-0.7226562500913459 0:60 1:11 2:156 3:60 4:10 5:181 6:70 7:8 8:181 9:70 10:8 11:186 12:60 13:10 14:181 15:60 16:10 17:184 18:60 19:10 20:177 21:60 22:10 23:179 24:51 25:10 26:179 27:51 28:10 29:184 30:55 31:9 32:180 33:60 34:10 35:183 36:60 37:10 38:180 39:66 40:14 41:180 42:63 43:14 44:183 45:63 46:14 47:184 48:48 49:13 50:193 51:51 52:10 53:182 54:56 55:11 56:188 57:60 58:10 59:183 60:66 61:14 62:185 63:63 64:14 65:180 66:65 67:16 68:191 69:63 70:14 71:188 72:48 73:13 74:191 75:56 76:11 77:190 78:56 79:11 80:185 81:60 82:10 83:184 84:66 85:14 86:187 87:68 88:15 89:190 90:69 91:18 92:189 93:68 94:15 95:189 96:51 97:10 98:181 99:56 100:11 101:186 102:66 103:14 104:184 105:66 106:14 107:187 108:68 109:15 110:190 111:74 112:17 113:196 114:71 115:22 116:189 117:74 118:18 119:184 120:55 121:8 122:183 123:60 124:10 125:184 126:73 127:12 128:189 129:74 130:15 131:188 132:74 133:17 134:191 135:80 136:20 137:191 138:76 139:23 140:189 141:80 142:21 143:186 144:66 145:14 146:185 147:73 148:12 149:186 150:74 151:15 152:188 153:80 154:17 155:185 156:80 157:21 158:185 159:80 160:21 161:186 162:84 163:21 164:190 165:84 166:21 167:183 168:69 169:18 170:187 171:69 172:17 173:190 174:69 175:18 176:188 177:76 178:21 179:183 180:80 181:21 182:183 183:84 184:21 185:184 186:90 187:20 188:182 189:98 190:20 191:190 192:-1 
-0.7216796876153844 0:70 1:12 2:123 3:70 4:10 5:153 6:80 7:8 8:189 9:80 10:8 11:187 12:70 13:8 14:189 15:70 16:8 17:185 18:70 19:8 20:181 21:60 22:10 23:182 24:60 25:11 26:156 27:60 28:10 29:181 30:70 31:8 32:181 33:70 34:8 35:186 36:60 37:10 38:181 39:60 40:10 41:184 42:60 43:10 44:177 45:60 46:10 47:179 48:51 49:10 50:179 51:51 52:10 53:184 54:55 55:9 56:180 57:60 58:10 59:183 60:60 61:10 62:180 63:66 64:14 65:180 66:63 67:14 68:183 69:63 70:14 71:184 72:48 73:13 74:193 75:51 76:10 77:182 78:56 79:11 80:188 81:60 82:10 83:183 84:66 85:14 86:185 87:63 88:14 89:180 90:65 91:16 92:191 93:63 94:14 95:188 96:48 97:13 98:191 99:56 100:11 101:190 102:56 103:11 104:185 105:60 106:10 107:184 108:66 109:14 110:187 111:68 112:15 113:190 114:69 115:18 116:189 117:68 118:15 119:189 120:51 121:10 122:181 123:56 124:11 125:186 126:66 127:14 128:184 129:66 130:14 131:187 132:68 133:15 134:190 135:74 136:17 137:196 138:71 139:22 140:189 141:74 142:18 143:184 144:55 145:8 146:183 147:60 148:10 149:184 150:73 151:12 152:189 153:74 154:15 155:188 156:74 157:17 158:191 159:80 160:20 161:191 162:76 163:23 164:189 165:80 166:21 167:186 168:66 169:14 170:185 171:73 172:12 173:186 174:74 175:15 176:188 177:80 178:17 179:185 180:80 181:21 182:185 183:80 184:21 185:186 186:84 187:21 188:190 189:84 190:21 191:183 192:-1 
-0.7216796876153848 0:73 1:12 2:187 3:60 4:9 5:194 6:70 7:8 8:193 9:70 10:8 11:185 12:66 13:7 14:185 15:70 16:9 17:180 18:74 19:15 20:186 21:74 22:18 23:185 24:73 25:12 26:194 27:73 28:12 29:191 30:70 31:8 32:181 33:70 34:8 35:184 36:80 37:8 38:183 39:80 40:12 41:187 42:74 43:15 44:186 45:68 46:15 47:185 48:73 49:12 50:188 51:73 52:12 53:190 54:80 55:13 56:181 57:80 58:12 59:184 60:87 61:12 62:185 63:80 64:13 65:183 66:66 67:14 68:187 69:65 70:16 71:187 72:73 73:13 74:183 75:73 76:12 77:187 78:73 79:12 80:188 81:80 82:12 83:189 84:80 85:12 86:186 87:80 88:12 89:189 90:63 91:14 92:188 93:57 94:15 95:188 96:60 97:9 98:189 99:60 100:10 101:185 102:66 103:14 104:188 105:73 106:12 107:188 108:80 109:12 110:188 111:73 112:12 113:186 114:56 115:11 116:184 117:52 118:15 119:193 120:56 121:11 122:184 123:56 124:11 125:187 126:66 127:13 128:190 129:66 130:14 131:188 132:73 133:12 134:187 135:73 136:12 137:187 138:55 139:8 140:192 141:56 142:11 143:189 144:63 145:14 146:186 147:63 148:13 149:190 150:66 151:13 152:189 153:66 154:13 155:189 156:73 157:12 158:186 159:73 160:12 161:192 162:66 163:7 164:193 165:70 166:8 167:191 168:63 169:14 170:188 171:66 172:14 173:186 174:66 175:14 176:184 177:73 178:12 179:188 180:73 181:12 182:187 183:80 184:12 185:194 186:80 187:8 188:188 189:80 190:9 191:177 192:-1 
-0.722656250081731 0:34 1:13 2:163 3:34 4:11 5:189 6:43 7:9 8:190 9:51 10:10 11:185 12:63 13:13 14:191 15:63 16:14 17:188 18:57 19:15 20:186 21:60 22:16 23:189 24:43 25:9 26:195 27:43 28:9 29:190 30:55 31:8 32:186 33:60 34:9 35:188 36:68 37:15 38:187 39:68 40:15 41:188 42:65 43:16 44:186 45:57 46:15 47:189 48:55 49:8 50:191 51:42 52:7 53:185 54:66 55:7 56:187 57:73 58:12 59:187 60:74 61:15 62:184 63:68 64:15 65:188 66:68 67:15 68:186 69:63 70:14 71:188 72:70 73:8 74:185 75:66 76:7 77:185 78:70 79:9 80:180 81:74 82:15 83:186 84:74 85:18 86:185 87:68 88:15 89:189 90:68 91:15 92:192 93:66 94:13 95:189 96:70 97:8 98:184 99:80 100:8 101:183 102:80 103:12 104:187 105:74 106:15 107:186 108:68 109:15 110:185 111:68 112:15 113:187 114:68 115:15 116:191 117:74 118:15 119:189 120:80 121:12 122:184 123:87 124:12 125:185 126:80 127:13 128:183 129:66 130:14 131:187 132:65 133:16 134:187 135:68 136:15 137:185 138:74 139:15 140:189 141:79 142:15 143:191 144:80 145:12 146:189 147:80 148:12 149:186 150:80 151:12 152:189 153:63 154:14 155:188 156:57 157:15 158:188 159:66 160:13 161:189 162:74 163:15 164:191 165:80 166:16 167:196 168:73 169:12 170:188 171:80 172:12 173:188 174:73 175:12 176:186 177:56 178:11 179:184 180:52 181:15 182:193 183:66 184:13 185:190 186:74 187:15 188:192 189:80 190:16 191:193 192:-1 
-0.7226562500625002 0:80 1:10 2:160 3:66 4:7 5:172 6:66 7:7 8:188 9:50 10:4 11:188 12:42 13:7 14:180 15:55 16:9 17:180 18:55 19:8 20:184 21:60 22:10 23:181 24:70 25:9 26:171 27:60 28:9 29:190 30:55 31:8 32:184 33:55 34:8 35:182 36:51 37:10 38:180 39:60 40:10 41:185 42:56 43:11 44:186 45:60 46:10 47:187 48:56 49:11 50:191 51:56 52:11 53:183 54:63 55:14 56:183 57:63 58:14 59:181 60:57 61:15 62:184 63:63 64:14 65:187 66:57 67:15 68:191 69:63 70:14 71:188 72:63 73:13 74:191 75:63 76:14 77:188 78:57 79:15 80:186 81:60 82:16 83:189 84:60 85:16 86:187 87:60 88:16 89:189 90:60 91:16 92:191 93:60 94:16 95:195 96:68 97:15 98:187 99:68 100:15 101:188 102:65 103:16 104:186 105:57 106:15 107:189 108:57 109:15 110:186 111:54 112:19 113:189 114:54 115:18 116:194 117:54 118:18 119:197 120:74 121:15 122:184 123:68 124:15 125:188 126:68 127:15 128:186 129:63 130:14 131:188 132:57 133:15 134:187 135:57 136:15 137:188 138:57 139:14 140:196 141:57 142:14 143:196 144:74 145:18 146:185 147:68 148:15 149:189 150:68 151:15 152:192 153:66 154:13 155:189 156:63 157:13 158:192 159:63 160:13 161:192 162:63 163:13 164:200 165:66 166:13 167:203 168:68 169:15 170:185 171:68 172:15 173:187 174:68 175:15 176:191 177:74 178:15 179:189 180:74 181:14 182:197 183:74 184:14 185:199 186:79 187:14 188:203 189:79 190:13 191:212 192:-1 
-0.7226562500913464 0:80 1:11 2:143 3:83 4:6 5:166 6:83 7:6 8:175 9:83 10:5 11:187 12:66 13:7 14:183 15:66 16:7 17:174 18:55 19:9 20:174 21:42 22:7 23:179 24:66 25:7 26:180 27:66 28:7 29:184 30:66 31:7 32:187 33:70 34:8 35:184 36:60 37:10 38:182 39:60 40:10 41:175 42:60 43:10 44:175 45:55 46:9 47:180 48:66 49:7 50:188 51:66 52:7 53:190 54:66 55:7 56:186 57:60 58:10 59:177 60:60 61:10 62:178 63:60 64:10 65:175 66:60 67:10 68:174 69:55 70:9 71:179 72:42 73:7 74:180 75:55 76:9 77:180 78:55 79:8 80:184 81:60 82:10 83:181 84:60 85:10 86:181 87:66 88:14 89:180 90:66 91:14 92:179 93:70 94:8 95:182 96:51 97:10 98:180 99:60 100:10 101:185 102:56 103:11 104:186 105:60 106:10 107:187 108:66 109:14 110:186 111:66 112:14 113:186 114:66 115:14 116:186 117:70 118:8 119:184 120:57 121:15 122:184 123:63 124:14 125:187 126:57 127:15 128:191 129:63 130:14 131:188 132:65 133:16 134:188 135:65 136:16 137:189 138:65 139:16 140:191 141:66 142:13 143:199 144:60 145:16 146:187 147:60 148:16 149:189 150:60 151:16 152:191 153:60 154:16 155:195 156:60 157:16 158:195 159:65 160:16 161:194 162:68 163:14 164:201 165:66 166:13 167:198 168:57 169:15 170:186 171:54 172:19 173:189 174:54 175:18 176:194 177:54 178:18 179:197 180:57 181:14 182:196 183:65 184:15 185:202 186:68 187:14 188:203 189:79 190:14 191:197 192:-1 
-0.7216796876189906 0:80 1:10 2:147 3:80 4:9 5:165 6:70 7:8 8:181 9:60 10:10 11:185 12:55 13:9 14:180 15:51 16:10 17:178 18:40 19:13 20:178 21:43 22:10 23:179 24:83 25:6 26:174 27:83 28:6 29:180 30:66 31:7 32:182 33:55 34:9 35:180 36:42 37:7 38:180 39:43 40:10 41:180 42:35 43:9 44:177 45:35 46:9 47:177 48:83 49:5 50:187 51:66 52:7 53:183 54:66 55:7 56:174 57:55 58:9 59:174 60:42 61:7 62:179 63:43 64:10 65:180 66:35 67:9 68:177 69:35 70:8 71:181 72:70 73:8 74:184 75:60 76:10 77:182 78:60 79:10 80:175 81:60 82:10 83:175 84:55 85:9 86:180 87:55 88:9 89:180 90:42 91:7 92:181 93:43 94:9 95:189 96:60 97:10 98:177 99:60 100:10 101:178 102:60 103:10 104:175 105:60 106:10 107:174 108:55 109:9 110:179 111:55 112:8 113:184 114:55 115:8 116:185 117:42 118:7 119:186 120:60 121:10 122:181 123:60 124:10 125:181 126:66 127:14 128:180 129:66 130:14 131:179 132:70 133:8 134:182 135:70 136:8 137:190 138:70 139:8 140:192 141:70 142:8 143:189 144:60 145:10 146:187 147:66 148:14 149:186 150:66 151:14 152:186 153:66 154:14 155:186 156:70 157:8 158:184 159:70 160:8 161:189 162:70 163:8 164:196 165:73 166:11 167:200 168:63 169:14 170:188 171:65 172:16 173:188 174:65 175:16 176:189 177:65 178:16 179:191 180:66 181:13 182:199 183:66 184:13 185:201 186:73 187:12 188:197 189:79 190:14 191:194 192:-1 
-0.7226562500913464 0:60 1:17 2:104 3:55 4:12 5:126 6:51 7:13 8:137 9:43 10:11 11:166 12:43 13:9 14:190 15:40 16:12 17:184 18:40 19:12 20:188 21:40 22:12 23:187 24:56 25:14 26:142 27:51 28:13 29:142 30:51 31:11 32:156 33:51 34:10 35:172 36:48 37:14 38:176 39:48 40:14 41:184 42:51 43:10 44:183 45:55 46:8 47:183 48:56 49:13 50:156 51:51 52:11 53:159 54:56 55:11 56:178 57:56 58:12 59:168 60:63 61:15 62:165 63:63 64:15 65:174 66:63 67:14 68:182 69:66 70:13 71:192 72:56 73:12 74:164 75:48 76:15 77:172 78:56 79:12 80:168 81:66 82:16 83:164 84:68 85:16 86:171 87:65 88:17 89:177 90:65 91:16 92:188 93:65 94:16 95:191 96:51 97:11 98:169 99:40 100:14 101:170 102:51 103:10 104:172 105:60 106:10 107:173 108:66 109:14 110:178 111:65 112:16 113:188 114:65 115:16 116:196 117:65 118:16 119:193 120:51 121:10 122:178 123:40 124:13 125:178 126:43 127:10 128:179 129:55 130:8 131:182 132:60 133:10 134:187 135:63 136:13 137:190 138:63 139:13 140:191 141:65 142:16 143:191 144:43 145:10 146:180 147:35 148:9 149:177 150:35 151:9 152:177 153:40 154:13 155:181 156:40 157:12 158:194 159:51 160:10 161:181 162:60 163:10 164:185 165:73 166:12 167:192 168:43 169:10 170:180 171:35 172:9 173:177 174:35 175:8 176:181 177:34 178:11 179:185 180:40 181:12 182:186 183:43 184:10 185:182 186:60 187:9 188:190 189:80 190:8 191:189 192:-1 
-0.7226562500913464 0:50 1:7 2:105 3:34 4:14 5:145 6:35 7:17 8:168 9:35 10:19 11:177 12:35 13:18 14:187 15:40 16:12 17:188 18:43 19:9 20:190 21:43 22:9 23:189 24:36 25:8 26:151 27:34 28:12 29:177 30:35 31:18 32:180 33:34 34:19 35:186 36:38 37:21 38:186 39:38 40:15 41:185 42:40 43:12 44:187 45:43 46:10 47:184 48:43 49:9 50:190 51:40 52:12 53:184 54:40 55:12 56:188 57:40 58:12 59:187 60:43 61:10 62:184 63:42 64:7 65:183 66:55 67:8 68:186 69:66 70:7 71:185 72:48 73:14 74:176 75:48 76:14 77:184 78:51 79:10 80:183 81:55 82:8 83:183 84:55 85:8 86:183 87:66 88:7 89:179 90:66 91:7 92:186 93:55 94:8 95:187 96:63 97:15 98:165 99:63 100:15 101:174 102:63 103:14 104:182 105:66 106:13 107:192 108:66 109:14 110:187 111:66 112:14 113:188 114:56 115:11 116:184 117:52 118:15 119:188 120:68 121:16 122:171 123:65 124:17 125:177 126:65 127:16 128:188 129:65 130:16 131:191 132:68 133:15 134:191 135:68 136:15 137:189 138:63 139:13 140:192 141:57 142:15 143:191 144:66 145:14 146:178 147:65 148:16 149:188 150:65 151:16 152:196 153:65 154:16 155:193 156:65 157:16 158:196 159:68 160:15 161:191 162:74 163:14 164:194 165:68 166:14 167:194 168:60 169:10 170:187 171:63 172:13 173:190 174:63 175:13 176:191 177:65 178:16 179:191 180:68 181:14 182:194 183:80 184:16 185:192 186:80 187:16 188:197 189:80 190:16 191:197 192:-1 
-0.7226562500625002 0:114 1:9 2:144 3:115 4:9 5:166 6:114 7:6 8:197 9:110 10:4 11:193 12:50 13:4 14:189 15:43 16:10 17:187 18:40 19:12 20:184 21:40 22:13 23:182 24:50 25:4 26:171 27:75 28:3 29:190 30:75 31:3 32:188 33:75 34:3 35:191 36:42 37:7 38:187 39:43 40:10 41:184 42:40 43:12 44:185 45:40 46:12 47:185 48:35 49:18 50:187 51:40 52:12 53:188 54:43 55:9 56:190 57:43 58:9 59:189 60:42 61:7 62:184 63:51 64:10 65:184 66:51 67:10 68:187 69:55 70:8 71:188 72:38 73:21 74:186 75:38 76:15 77:185 78:40 79:12 80:187 81:43 82:10 83:184 84:43 85:10 86:184 87:55 88:8 89:187 90:55 91:8 92:190 93:55 94:8 95:189 96:43 97:10 98:184 99:42 100:7 101:183 102:55 103:8 104:186 105:66 106:7 107:185 108:55 109:8 110:185 111:43 112:10 113:187 114:43 115:9 116:189 117:43 118:9 119:189 120:55 121:8 122:183 123:66 124:7 125:179 126:66 127:7 128:186 129:55 130:8 131:187 132:51 133:10 134:186 135:38 136:15 137:186 138:38 139:15 140:188 141:38 142:15 143:193 144:66 145:14 146:187 147:66 148:14 149:188 150:56 151:11 152:184 153:52 154:15 155:188 156:43 157:19 158:188 159:37 160:23 161:190 162:37 163:22 164:195 165:35 166:17 167:200 168:68 169:15 170:191 171:68 172:15 173:189 174:63 175:13 176:192 177:57 178:15 179:191 180:46 181:20 182:194 183:43 184:21 185:197 186:43 187:21 188:198 189:38 190:14 191:196 192:-1 
-0.7216796876153848 0:52 1:21 2:133 3:52 4:19 5:150 6:56 7:13 8:157 9:66 10:14 11:179 12:73 13:12 14:185 15:70 16:8 17:186 18:66 19:7 20:182 21:42 22:7 23:176 24:40 25:15 26:157 27:48 28:15 29:167 30:51 31:9 32:190 33:60 34:9 35:191 36:70 37:8 38:184 39:80 40:8 41:182 42:66 43:7 44:180 45:55 46:8 47:181 48:36 49:8 50:169 51:42 52:7 53:186 54:42 55:7 56:183 57:66 58:7 59:179 60:96 61:7 62:181 63:96 64:7 65:187 66:83 67:6 68:182 69:66 70:7 71:187 72:36 73:7 74:190 75:35 76:8 77:182 78:42 79:7 80:178 81:50 82:4 83:180 84:83 85:6 86:182 87:96 88:7 89:183 90:83 91:6 92:185 93:66 94:7 95:186 96:43 97:10 98:187 99:40 100:12 101:184 102:40 103:13 104:182 105:43 106:10 107:180 108:55 109:8 110:183 111:66 112:7 113:186 114:66 115:7 116:186 117:55 118:8 119:188 120:43 121:10 122:184 123:40 124:12 125:185 126:40 127:12 128:185 129:51 130:10 131:185 132:55 133:8 134:185 135:66 136:7 137:186 138:66 139:7 140:186 141:66 142:7 143:192 144:51 145:10 146:184 147:51 148:10 149:187 150:55 151:8 152:188 153:66 154:7 155:186 156:83 157:6 158:184 159:83 160:6 161:185 162:96 163:7 164:193 165:96 166:6 167:199 168:55 169:8 170:187 171:55 172:8 173:190 174:55 175:8 176:189 177:66 178:7 179:188 180:83 181:5 182:189 183:96 184:7 185:195 186:103 187:9 188:204 189:109 190:10 191:202 192:-1 
-0.7216796876189906 0:56 1:13 2:157 3:66 4:14 5:179 6:73 7:12 8:185 9:70 10:8 11:186 12:66 13:7 14:182 15:42 16:7 17:176 18:51 19:10 20:179 21:48 22:14 23:181 24:51 25:9 26:190 27:60 28:9 29:191 30:70 31:8 32:184 33:80 34:8 35:182 36:66 37:7 38:180 39:55 40:8 41:181 42:51 43:10 44:182 45:52 46:15 47:185 48:42 49:7 50:183 51:66 52:7 53:179 54:96 55:7 56:181 57:96 58:7 59:187 60:83 61:6 62:182 63:66 64:7 65:187 66:51 67:10 68:182 69:52 70:15 71:189 72:42 73:7 74:178 75:50 76:4 77:180 78:83 79:6 80:182 81:96 82:7 83:183 84:83 85:6 86:185 87:66 88:7 89:186 90:56 91:11 92:186 93:56 94:11 95:189 96:40 97:13 98:182 99:43 100:10 101:180 102:55 103:8 104:183 105:66 106:7 107:186 108:66 109:7 110:186 111:55 112:8 113:188 114:60 115:9 116:188 117:60 118:9 119:193 120:40 121:12 122:185 123:51 124:10 125:185 126:55 127:8 128:185 129:66 130:7 131:186 132:66 133:7 134:186 135:66 136:7 137:192 138:70 139:8 140:193 141:70 142:8 143:195 144:55 145:8 146:188 147:66 148:7 149:186 150:83 151:6 152:184 153:83 154:6 155:185 156:96 157:7 158:193 159:96 160:6 161:199 162:90 163:8 164:197 165:87 166:11 167:204 168:55 169:8 170:189 171:66 172:7 173:188 174:83 175:5 176:189 177:96 178:7 179:195 180:103 181:9 182:204 183:109 184:10 185:202 186:103 187:11 188:208 189:98 190:15 191:187 192:-1 
-0.7226562500913464 0:42 1:9 2:145 3:35 4:10 5:155 6:40 7:13 8:174 9:40 10:13 11:177 12:45 13:16 14:186 15:48 16:18 17:188 18:48 19:18 20:186 21:54 22:20 23:182 24:55 25:9 26:176 27:43 28:10 29:182 30:40 31:12 32:185 33:38 34:15 35:181 36:45 37:17 38:179 39:48 40:18 41:185 42:52 43:15 44:184 45:57 46:15 47:183 48:66 49:7 50:185 51:43 52:10 53:184 54:40 55:13 56:179 57:45 58:17 59:181 60:48 61:19 62:179 63:57 64:15 65:184 66:63 67:14 68:184 69:68 70:15 71:188 72:66 73:7 74:182 75:42 76:7 77:176 78:51 79:10 80:179 81:48 82:14 83:181 84:52 85:15 86:187 87:57 88:15 89:182 90:66 91:14 92:185 93:74 94:15 95:186 96:66 97:7 98:180 99:55 100:8 101:181 102:51 103:10 104:182 105:52 106:15 107:185 108:57 109:15 110:187 111:63 112:14 113:185 114:74 115:15 116:189 117:74 118:17 119:191 120:83 121:6 122:182 123:66 124:7 125:187 126:51 127:10 128:182 129:52 130:15 131:189 132:63 133:14 134:186 135:63 136:13 137:192 138:74 139:14 140:195 141:80 142:15 143:199 144:83 145:6 146:185 147:66 148:7 149:186 150:56 151:11 152:186 153:56 154:11 155:189 156:63 157:13 158:195 159:66 160:13 161:193 162:74 163:14 164:201 165:80 166:15 167:202 168:66 169:7 170:186 171:55 172:8 173:188 174:60 175:9 176:188 177:60 178:9 179:193 180:66 181:13 182:197 183:73 184:11 185:200 186:79 187:14 188:199 189:80 190:16 191:195 192:-1 
-0.7226562491971144 0:40 1:15 2:150 3:38 4:17 5:167 6:43 7:20 8:177 9:43 10:19 11:192 12:46 13:21 14:184 15:46 16:20 17:189 18:48 19:18 20:188 21:52 22:15 23:187 24:38 25:16 26:176 27:45 28:17 29:185 30:43 31:19 32:187 33:46 34:20 35:187 36:46 37:20 38:190 39:46 40:21 41:185 42:48 43:18 44:186 45:48 46:18 47:185 48:38 49:15 50:184 51:45 52:16 53:193 54:45 55:16 56:187 57:48 58:18 59:189 60:48 61:18 62:183 63:54 64:19 65:189 66:54 67:19 68:185 69:54 70:19 71:191 72:45 73:16 74:186 75:48 76:18 77:188 78:48 79:18 80:186 81:54 82:20 83:182 84:57 85:15 86:186 87:54 88:20 89:180 90:54 91:19 92:188 93:54 94:20 95:183 96:45 97:17 98:179 99:48 100:18 101:185 102:52 103:15 104:184 105:57 106:15 107:183 108:63 109:14 110:186 111:60 112:16 113:192 114:60 115:16 116:188 117:60 118:16 119:191 120:48 121:19 122:179 123:57 124:15 125:184 126:63 127:14 128:184 129:68 130:15 131:188 132:68 133:15 134:186 135:65 136:16 137:186 138:65 139:16 140:193 141:65 142:15 143:199 144:52 145:15 146:187 147:57 148:15 149:182 150:66 151:14 152:185 153:74 154:15 155:186 156:74 157:15 158:188 159:74 160:17 161:196 162:69 163:17 164:197 165:69 166:16 167:202 168:57 169:15 170:187 171:63 172:14 173:185 174:74 175:15 176:189 177:74 178:17 179:191 180:80 181:16 182:193 183:80 184:16 185:194 186:74 187:16 188:204 189:69 190:17 191:197 192:-1 
-0.7216796867259605 0:45 1:19 2:157 3:43 4:22 5:165 6:46 7:20 8:194 9:48 10:18 11:184 12:48 13:14 14:182 15:51 16:9 17:188 18:51 19:10 20:185 21:51 22:10 23:183 24:43 25:20 26:177 27:43 28:19 29:192 30:46 31:21 32:184 33:46 34:20 35:189 36:48 37:18 38:188 39:52 40:15 41:187 42:48 43:13 44:191 45:48 46:13 47:189 48:43 49:19 50:187 51:46 52:20 53:187 54:46 55:20 56:190 57:46 58:21 59:185 60:48 61:18 62:186 63:48 64:18 65:185 66:48 67:14 68:183 69:48 70:14 71:187 72:45 73:16 74:187 75:48 76:18 77:189 78:48 79:18 80:183 81:54 82:19 83:189 84:54 85:19 86:185 87:54 88:19 89:191 90:52 91:15 92:183 93:52 94:15 95:188 96:48 97:18 98:186 99:54 100:20 101:182 102:57 103:15 104:186 105:54 106:20 107:180 108:54 109:19 110:188 111:54 112:20 113:183 114:57 115:15 116:187 117:56 118:11 119:188 120:52 121:15 122:184 123:57 124:15 125:183 126:63 127:14 128:186 129:60 130:16 131:192 132:60 133:16 134:188 135:60 136:16 137:191 138:65 139:16 140:193 141:63 142:13 143:194 144:63 145:14 146:184 147:68 148:15 149:188 150:68 151:15 152:186 153:65 154:16 155:186 156:65 157:16 158:193 159:65 160:15 161:199 162:65 163:16 164:195 165:68 166:14 167:194 168:66 169:14 170:185 171:74 172:15 173:186 174:74 175:15 176:188 177:74 178:17 179:196 180:69 181:17 182:197 183:69 184:16 185:202 186:69 187:17 188:197 189:74 190:17 191:196 192:-1 
-0.7216796876189906 0:52 1:18 2:157 3:55 4:9 5:165 6:66 7:7 8:175 9:66 10:7 11:181 12:66 13:7 14:179 15:50 16:4 17:179 18:42 19:7 20:184 21:34 22:11 23:188 24:48 25:18 26:185 27:51 28:9 29:190 30:55 31:8 32:186 33:55 34:8 35:182 36:55 37:8 38:183 39:42 40:7 41:186 42:43 43:10 44:186 45:43 46:10 47:187 48:48 49:18 50:184 51:48 52:14 53:182 54:51 55:9 56:188 57:51 58:10 59:185 60:51 61:10 62:183 63:43 64:9 65:188 66:43 67:10 68:185 69:51 70:9 71:189 72:46 73:20 74:189 75:48 76:18 77:188 78:52 79:15 80:187 81:48 82:13 83:191 84:48 85:13 86:189 87:48 88:14 89:185 90:51 91:9 92:188 93:56 94:11 95:189 96:46 97:21 98:185 99:48 100:18 101:186 102:48 103:18 104:185 105:48 106:14 107:183 108:48 109:14 110:187 111:48 112:14 113:188 114:56 115:11 116:190 117:66 118:13 119:195 120:54 121:19 122:189 123:54 124:19 125:185 126:54 127:19 128:191 129:52 130:15 131:183 132:52 133:15 134:188 135:56 136:11 137:193 138:63 139:13 140:190 141:68 142:14 143:201 144:54 145:20 146:180 147:54 148:19 149:188 150:54 151:20 152:183 153:57 154:15 155:187 156:56 157:11 158:188 159:56 160:11 161:187 162:66 163:13 164:192 165:74 166:18 167:187 168:60 169:16 170:192 171:60 172:16 173:188 174:60 175:16 176:191 177:65 178:16 179:193 180:63 181:13 182:194 183:73 184:12 185:188 186:74 187:15 188:192 189:80 190:22 191:177 192:-1 
-0.7226562500913464 0:75 1:4 2:132 3:42 4:9 5:149 6:35 7:16 8:177 9:35 10:18 11:183 12:35 13:18 14:186 15:35 16:18 17:188 18:39 19:19 20:191 21:39 22:19 23:188 24:75 25:3 26:151 27:42 28:8 29:169 30:35 31:18 32:157 33:34 34:21 35:167 36:34 37:21 38:168 39:34 40:19 41:189 42:38 43:21 44:184 45:38 46:20 47:190 48:75 49:3 50:180 51:42 52:7 53:181 54:34 55:11 56:180 57:35 58:18 59:187 60:39 61:19 62:191 63:39 64:18 65:193 66:39 67:19 68:192 69:39 70:19 71:190 72:50 73:4 74:179 75:42 76:7 77:184 78:34 79:11 80:188 81:38 82:14 83:195 84:38 85:14 86:197 87:39 88:18 89:195 90:38 91:15 92:192 93:45 94:16 95:195 96:42 97:7 98:186 99:43 100:10 101:186 102:43 103:10 104:187 105:40 106:12 107:188 108:40 109:12 110:193 111:45 112:16 113:194 114:48 115:13 116:194 117:52 118:14 119:194 120:43 121:9 122:188 123:43 124:10 125:185 126:51 127:9 128:189 129:51 130:10 131:187 132:51 133:9 134:193 135:56 136:11 137:193 138:56 139:10 140:198 141:63 142:13 143:196 144:48 145:14 146:185 147:51 148:9 149:188 150:56 151:11 152:189 153:66 154:13 155:195 156:66 157:13 158:198 159:68 160:14 161:204 162:68 163:14 164:202 165:68 166:14 167:206 168:48 169:14 170:188 171:56 172:11 173:190 174:66 175:13 176:195 177:68 178:14 179:195 180:68 181:13 182:209 183:74 184:16 185:202 186:74 187:16 188:201 189:76 190:21 191:178 192:-1 
-0.7216796876189906 0:35 1:14 2:112 3:35 4:11 5:136 6:43 7:11 8:162 9:43 10:10 11:183 12:43 13:10 14:185 15:43 16:9 17:194 18:40 19:12 20:189 21:38 22:15 23:182 24:35 25:10 26:156 27:35 28:9 29:168 30:43 31:10 32:187 33:43 34:10 35:187 36:43 37:9 38:196 39:40 40:12 41:190 42:38 43:15 44:190 45:39 46:19 47:187 48:35 49:8 50:191 51:36 52:6 53:203 54:42 55:7 56:193 57:42 58:7 59:190 60:43 61:9 62:190 63:40 64:12 65:192 66:38 67:15 68:192 69:39 70:19 71:192 72:34 73:10 74:195 75:35 76:8 77:193 78:43 79:9 80:192 81:43 82:9 83:190 84:40 85:12 86:193 87:38 88:15 89:189 90:38 91:15 92:190 93:39 94:18 95:193 96:35 97:18 98:186 99:35 100:18 101:188 102:39 103:19 104:191 105:39 106:19 107:188 108:35 109:17 110:192 111:35 112:18 113:189 114:35 115:17 116:190 117:35 118:17 119:193 120:34 121:21 122:168 123:34 124:19 125:189 126:38 127:21 128:184 129:38 130:20 131:190 132:38 133:20 134:189 135:34 136:18 137:197 138:35 139:17 140:195 141:35 142:14 143:197 144:39 145:19 146:191 147:39 148:18 149:193 150:39 151:19 152:192 153:39 154:19 155:190 156:39 157:19 158:192 159:39 160:19 161:191 162:38 163:14 164:194 165:38 166:14 167:199 168:38 169:14 170:197 171:39 172:18 173:195 174:38 175:15 176:192 177:45 178:16 179:195 180:45 181:15 182:199 183:45 184:15 185:200 186:48 187:13 188:201 189:48 190:13 191:196 192:-1 
