svm_type c_svc
kernel_type rbf
gamma 0.0078125
nr_class 2
total_sv 47
rho 0.0833594
label 1 -1
nr_sv 22 25
SV
1 0:38 1:126 2:38 3:135 4:37 5:104 6:37 7:94 8:34 9:83 10:34 11:88 12:26 13:91 14:26 15:92 16:38 17:153 18:38 19:152 20:36 21:128 22:36 23:115 24:34 25:94 26:34 27:95 28:29 29:89 30:29 31:87 32:38 33:136 34:38 35:139 36:36 37:133 38:36 39:126 40:35 41:94 42:35 43:88 44:32 45:78 46:32 47:79 48:38 49:128 50:38 51:138 52:38 53:142 54:38 55:139 56:37 57:108 58:37 59:95 60:37 61:75 62:37 63:83 64:35 65:149 66:35 67:183 68:36 69:168 70:36 71:180 72:37 73:191 74:37 75:156 76:38 77:155 78:38 79:156 80:31 81:127 82:31 83:146 84:32 85:170 86:32 87:155 88:37 89:145 90:37 91:149 92:35 93:153 94:35 95:145 96:32 97:112 98:32 99:116 100:32 101:130 102:32 103:126 104:35 105:107 106:35 107:115 108:35 109:112 110:35 111:108 112:32 113:83 114:32 115:81 116:33 117:93 118:33 119:105 120:31 121:133 122:31 123:147 124:31 125:153 126:31 127:135 128:-1 
1 0:35 1:106 2:35 3:83 4:35 5:74 6:34 7:88 8:34 9:95 10:33 11:114 12:33 13:102 14:33 15:100 16:31 17:90 18:34 19:94 20:34 21:91 22:35 23:123 24:35 25:129 26:34 27:132 28:34 29:119 30:29 31:108 32:29 33:105 34:33 35:105 36:33 37:94 38:34 39:81 40:34 41:78 42:34 43:63 44:34 45:66 46:27 47:65 48:32 49:101 50:31 51:91 52:31 53:78 54:31 55:73 56:31 57:74 58:31 59:67 60:31 61:72 62:33 63:73 64:34 65:109 66:34 67:87 68:34 69:77 70:32 71:81 72:32 73:85 74:33 75:96 76:33 77:98 78:35 79:118 80:35 81:112 82:34 83:111 84:34 85:106 86:35 87:103 88:35 89:107 90:35 91:125 92:35 93:114 94:33 95:112 96:34 97:105 98:35 99:101 100:35 101:95 102:32 103:90 104:32 105:90 106:33 107:95 108:33 109:96 110:33 111:98 112:34 113:79 114:34 115:75 116:34 117:73 118:32 119:85 120:32 121:86 122:31 123:87 124:31 125:89 126:31 127:86 128:-1 
1 0:33 1:115 2:35 3:80 4:35 5:74 6:32 7:56 8:32 9:54 10:26 11:56 12:26 13:62 14:26 15:80 16:32 17:98 18:32 19:90 20:32 21:89 22:31 23:94 24:31 25:85 26:31 27:87 28:31 29:95 30:32 31:90 32:32 33:77 34:32 35:92 36:32 37:94 38:33 39:130 40:33 41:124 42:32 43:128 44:32 45:127 46:33 47:115 48:31 49:88 50:32 51:97 52:32 53:100 54:32 55:109 56:32 57:110 58:32 59:112 60:32 61:106 62:32 63:99 64:32 65:103 66:33 67:103 68:33 69:105 70:34 71:107 72:34 73:107 74:34 75:98 76:34 77:95 78:32 79:90 80:31 81:95 82:32 83:98 84:32 85:98 86:35 87:100 88:35 89:100 90:35 91:95 92:35 93:95 94:34 95:83 96:34 97:145 98:35 99:168 100:35 101:151 102:37 103:113 104:37 105:113 106:35 107:96 108:35 109:108 110:39 111:145 112:32 113:164 114:35 115:200 116:35 117:184 118:36 119:122 120:36 121:122 122:35 123:107 124:35 125:136 126:38 127:181 128:-1 
1 0:26 1:114 2:26 3:125 4:28 5:126 6:28 7:121 8:31 9:134 10:31 11:155 12:33 13:183 14:33 15:191 16:31 17:120 18:31 19:117 20:30 21:115 22:30 23:114 24:27 25:133 26:27 27:123 28:27 29:128 30:27 31:157 32:32 33:132 34:32 35:111 36:29 37:87 38:29 39:80 40:26 41:71 42:26 43:71 44:26 45:78 46:26 47:75 48:29 49:78 50:29 51:73 52:28 53:61 54:28 55:61 56:25 57:60 58:25 59:60 60:25 61:65 62:25 63:62 64:27 65:65 66:27 67:62 68:29 69:65 70:29 71:67 72:29 73:71 74:29 75:71 76:26 77:67 78:26 79:67 80:29 81:67 82:29 83:65 84:33 85:137 86:33 87:221 88:35 89:146 90:35 91:132 92:32 93:106 94:32 95:102 96:25 97:96 98:25 99:97 100:29 101:138 102:29 103:202 104:30 105:155 106:30 107:176 108:29 109:161 110:29 111:121 112:25 113:189 114:25 115:155 116:29 117:123 118:29 119:120 120:29 121:134 122:29 123:183 124:28 125:195 126:28 127:115 128:-1 
1 0:36 1:94 2:34 3:94 4:34 5:114 6:32 7:159 8:32 9:154 10:35 11:105 12:35 13:108 14:31 15:100 16:36 17:131 18:35 19:116 20:35 21:107 22:29 23:97 24:29 25:95 26:28 27:87 28:28 29:107 30:27 31:117 32:32 33:158 34:30 35:147 36:30 37:128 38:28 39:105 40:28 41:98 42:26 43:92 44:26 45:108 46:28 47:131 48:31 49:97 50:29 51:97 52:29 53:97 54:27 55:88 56:27 57:85 58:28 59:86 60:28 61:88 62:29 63:95 64:30 65:100 66:25 67:113 68:25 69:114 70:26 71:101 72:26 73:101 74:28 75:98 76:28 77:102 78:28 79:99 80:28 81:124 82:24 83:140 84:24 85:153 86:24 87:132 88:24 89:124 90:27 91:102 92:27 93:119 94:28 95:117 96:30 97:91 98:25 99:73 100:25 101:75 102:22 103:86 104:22 105:92 106:24 107:83 108:24 109:89 110:28 111:127 112:32 113:75 114:25 115:71 116:25 117:69 118:24 119:82 120:24 121:89 122:28 123:106 124:28 125:111 126:31 127:122 128:-1 
1 0:33 1:122 2:35 3:131 4:35 5:136 6:34 7:135 8:34 9:127 10:33 11:128 12:33 13:134 14:30 15:133 16:35 17:92 18:34 19:132 20:34 21:150 22:33 23:191 24:33 25:159 26:34 27:113 28:34 29:108 30:34 31:92 32:36 33:93 34:36 35:94 36:36 37:112 38:32 39:186 40:32 41:141 42:33 43:141 44:33 45:139 46:33 47:120 48:36 49:111 50:35 51:103 52:35 53:108 54:34 55:136 56:34 57:120 58:34 59:125 60:34 61:118 62:30 63:103 64:35 65:124 66:33 67:103 68:33 69:101 70:30 71:87 72:30 73:87 74:30 75:80 76:30 77:75 78:31 79:98 80:35 81:128 82:30 83:88 84:30 85:97 86:25 87:119 88:25 89:106 90:28 91:97 92:28 93:105 94:33 95:161 96:28 97:94 98:25 99:82 100:25 101:83 102:24 103:97 104:24 105:90 106:31 107:105 108:31 109:138 110:33 111:163 112:24 113:86 114:20 115:78 116:20 117:73 118:23 119:83 120:23 121:82 122:28 123:118 124:28 125:163 126:29 127:119 128:-1 
1 0:33 1:174 2:33 3:163 4:34 5:144 6:34 7:143 8:34 9:149 10:34 11:154 12:35 13:147 14:35 15:137 16:31 17:126 18:31 19:119 20:32 21:134 22:32 23:148 24:34 25:177 26:34 27:199 28:34 29:174 30:34 31:143 32:31 33:119 34:31 35:112 36:31 37:128 38:31 39:153 40:33 41:180 42:33 43:167 44:33 45:142 46:33 47:133 48:29 49:93 50:29 51:92 52:31 53:103 54:31 55:110 56:30 57:119 58:30 59:95 60:32 61:80 62:32 63:89 64:32 65:82 66:32 67:81 68:29 69:83 70:29 71:81 72:27 73:85 74:27 75:83 76:28 77:77 78:28 79:80 80:35 81:72 82:35 83:73 84:34 85:67 86:34 87:62 88:29 89:70 90:29 91:82 92:29 93:109 94:29 95:103 96:34 97:91 98:34 99:95 100:33 101:145 102:33 103:144 104:33 105:163 106:33 107:160 108:32 109:126 110:32 111:121 112:35 113:120 114:35 115:120 116:32 117:168 118:32 119:175 120:32 121:171 122:32 123:149 124:31 125:107 126:31 127:113 128:-1 
1 0:34 1:122 2:35 3:112 4:35 5:112 6:32 7:120 8:32 9:126 10:30 11:150 12:30 13:160 14:33 15:135 16:34 17:107 18:34 19:120 20:34 21:116 22:31 23:121 24:31 25:127 26:29 27:134 28:29 29:143 30:31 31:144 32:35 33:106 34:33 35:110 36:33 37:112 38:32 39:120 40:32 41:113 42:31 43:103 44:31 45:105 46:33 47:102 48:35 49:116 50:30 51:101 52:30 53:102 54:29 55:105 56:29 57:98 58:29 59:101 60:29 61:104 62:33 63:105 64:32 65:86 66:28 67:72 68:28 69:70 70:27 71:68 72:27 73:68 74:27 75:91 76:27 77:99 78:33 79:134 80:31 81:73 82:31 83:77 84:31 85:78 86:29 87:78 88:29 89:69 90:29 91:84 92:29 93:97 94:30 95:157 96:29 97:81 98:31 99:91 100:31 101:93 102:31 103:94 104:31 105:76 106:28 107:88 108:28 109:104 110:28 111:179 112:32 113:87 114:31 115:87 116:31 117:81 118:28 119:78 120:28 121:75 122:31 123:81 124:31 125:85 126:30 127:87 128:-1 
1 0:35 1:255 2:32 3:185 4:32 5:122 6:34 7:163 8:34 9:173 10:41 11:160 12:41 13:153 14:39 15:136 16:31 17:153 18:28 19:154 20:28 21:135 22:28 23:169 24:28 25:169 26:40 27:148 28:40 29:149 30:41 31:124 32:29 33:72 34:28 35:97 36:28 37:110 38:27 39:149 40:27 41:160 42:34 43:153 44:34 45:172 46:36 47:178 48:29 49:72 50:27 51:85 52:27 53:96 54:26 55:113 56:26 57:127 58:28 59:129 60:28 61:207 62:31 63:255 64:31 65:61 66:28 67:70 68:28 69:70 70:27 71:115 72:27 73:146 74:27 75:152 76:27 77:219 78:27 79:255 80:32 81:101 82:34 83:73 84:34 85:63 86:28 87:99 88:28 89:125 90:29 91:125 92:29 93:122 94:28 95:107 96:31 97:158 98:40 99:97 100:40 101:75 102:32 103:75 104:32 105:76 106:27 107:72 108:27 109:70 110:25 111:76 112:27 113:168 114:34 115:149 116:34 117:125 118:30 119:95 120:30 121:95 122:27 123:91 124:27 125:91 126:26 127:100 128:-1 
1 0:30 1:154 2:36 3:200 4:36 5:143 6:39 7:88 8:39 9:99 10:36 11:141 12:36 13:156 14:41 15:184 16:34 17:118 18:32 19:138 20:32 21:125 22:36 23:101 24:36 25:105 26:32 27:92 28:32 29:99 30:35 31:120 32:32 33:97 34:34 35:129 36:34 37:142 38:36 39:124 40:36 41:137 42:29 43:98 44:29 45:89 46:34 47:92 48:31 49:90 50:35 51:97 52:35 53:100 54:37 55:84 56:37 57:94 58:34 59:95 60:34 61:85 62:35 63:91 64:34 65:114 66:35 67:132 68:35 69:122 70:36 71:104 72:36 73:102 74:37 75:86 76:37 77:97 78:34 79:109 80:35 81:173 82:38 83:204 84:38 85:155 86:37 87:172 88:37 89:165 90:37 91:119 92:37 93:130 94:34 95:117 96:35 97:188 98:41 99:157 100:41 101:150 102:36 103:191 104:36 105:217 106:34 107:153 108:34 109:128 110:34 111:113 112:33 113:134 114:40 115:132 116:40 117:133 118:38 119:167 120:38 121:162 122:35 123:129 124:35 125:121 126:35 127:116 128:-1 
1 0:38 1:133 2:38 3:138 4:38 5:151 6:37 7:163 8:37 9:144 10:34 11:129 12:34 13:142 14:34 15:166 16:38 17:143 18:37 19:133 20:37 21:127 22:36 23:109 24:36 25:132 26:35 27:159 28:35 29:165 30:36 31:200 32:37 33:134 34:35 35:121 36:35 37:111 38:35 39:96 40:35 41:104 42:35 43:125 44:35 45:132 46:34 47:140 48:36 49:146 50:35 51:141 52:35 53:140 54:35 55:132 56:35 57:118 58:35 59:107 60:35 61:106 62:34 63:106 64:36 65:108 66:35 67:87 68:35 69:91 70:32 71:111 72:32 73:111 74:32 75:129 76:32 77:130 78:35 79:131 80:37 81:99 82:33 83:68 84:33 85:69 86:31 87:72 88:31 89:74 90:33 91:113 92:33 93:116 94:35 95:143 96:38 97:208 98:32 99:185 100:32 101:187 102:31 103:127 104:31 105:110 106:34 107:101 108:34 109:106 110:36 111:106 112:35 113:210 114:34 115:193 116:34 117:184 118:28 119:155 120:28 121:130 122:33 123:98 124:33 125:102 126:36 127:95 128:-1 
1 0:35 1:114 2:35 3:103 4:35 5:105 6:35 7:112 8:32 9:112 10:32 11:117 12:30 13:147 14:30 15:136 16:35 17:98 18:35 19:97 20:37 21:95 22:37 23:93 24:35 25:87 26:35 27:85 28:34 29:80 30:34 31:81 32:36 33:148 34:36 35:166 36:36 37:172 38:36 39:155 40:35 41:118 42:35 43:106 44:37 45:90 46:37 47:95 48:36 49:197 50:36 51:192 52:34 53:197 54:34 55:191 56:35 57:133 58:35 59:113 60:36 61:93 62:36 63:111 64:35 65:169 66:35 67:162 68:35 69:134 70:35 71:147 72:33 73:130 74:33 75:113 76:35 77:107 78:35 79:115 80:35 81:155 82:35 83:152 84:35 85:150 86:35 87:170 88:35 89:148 90:35 91:141 92:33 93:138 94:33 95:138 96:37 97:135 98:37 99:127 100:38 101:145 102:38 103:163 104:37 105:133 106:37 107:139 108:32 109:179 110:32 111:173 112:39 113:214 114:39 115:187 116:41 117:138 118:41 119:139 120:35 121:122 122:35 123:140 124:34 125:196 126:34 127:173 128:-1 
1 0:30 1:96 2:30 3:82 4:32 5:92 6:32 7:133 8:32 9:98 10:32 11:93 12:23 13:89 14:23 15:148 16:30 17:101 18:30 19:90 20:37 21:121 22:37 23:212 24:41 25:148 26:41 27:114 28:32 29:103 30:32 31:143 32:31 33:109 34:31 35:117 36:36 37:163 38:36 39:186 40:36 41:133 42:36 43:114 44:33 45:123 46:33 47:129 48:32 49:117 50:32 51:156 52:37 53:163 54:37 55:122 56:36 57:83 58:36 59:80 60:35 61:80 62:35 63:83 64:32 65:106 66:32 67:153 68:35 69:172 70:35 71:129 72:39 73:98 74:39 75:99 76:36 77:86 78:36 79:79 80:32 81:86 82:32 83:137 84:35 85:164 86:35 87:123 88:38 89:119 90:38 91:123 92:35 93:94 94:35 95:74 96:32 97:78 98:32 99:113 100:33 101:132 102:33 103:110 104:33 105:120 106:33 107:128 108:35 109:132 110:35 111:126 112:34 113:83 114:34 115:96 116:32 117:102 118:32 119:94 120:30 121:100 122:30 123:103 124:34 125:118 126:34 127:132 128:-1 
1 0:37 1:65 2:37 3:94 4:35 5:139 6:35 7:88 8:48 9:84 10:48 11:88 12:51 13:54 14:51 15:44 16:44 17:116 18:44 19:188 20:50 21:236 22:50 23:172 24:51 25:90 26:51 27:95 28:48 29:58 30:48 31:48 32:41 33:143 34:41 35:209 36:47 37:180 38:47 39:157 40:55 41:117 42:55 43:128 44:39 45:173 46:39 47:211 48:41 49:134 50:41 51:105 52:39 53:93 54:39 55:92 56:38 57:92 58:38 59:101 60:35 61:146 62:35 63:212 64:43 65:153 66:43 67:133 68:40 69:127 70:40 71:126 72:39 73:111 74:39 75:113 76:39 77:106 78:39 79:110 80:38 81:155 82:38 83:153 84:41 85:147 86:41 87:136 88:43 89:110 90:43 91:113 92:40 93:90 94:40 95:87 96:31 97:171 98:31 99:160 100:38 101:166 102:38 103:171 104:42 105:157 106:42 107:160 108:43 109:117 110:43 111:105 112:30 113:165 114:30 115:181 116:38 117:173 118:38 119:188 120:41 121:173 122:41 123:146 124:40 125:104 126:40 127:94 128:-1 
1 0:36 1:91 2:35 3:110 4:35 5:125 6:33 7:188 8:33 9:179 10:32 11:144 12:32 13:190 14:39 15:255 16:32 17:108 18:32 19:107 20:32 21:110 22:32 23:114 24:32 25:140 26:31 27:195 28:31 29:255 30:40 31:255 32:33 33:134 34:34 35:106 36:34 37:99 38:32 39:83 40:32 41:103 42:31 43:193 44:31 45:255 46:35 47:185 48:34 49:99 50:32 51:97 52:32 53:97 54:34 55:106 56:34 57:109 58:32 59:105 60:32 61:102 62:31 63:91 64:32 65:92 66:31 67:89 68:31 69:88 70:34 71:125 72:34 73:140 74:37 75:87 76:37 77:79 78:32 79:65 80:31 81:77 82:29 83:83 84:29 85:82 86:32 87:131 88:32 89:143 90:35 91:84 92:35 93:77 94:34 95:59 96:31 97:68 98:31 99:76 100:31 101:78 102:31 103:94 104:31 105:92 106:29 107:68 108:29 109:74 110:34 111:79 112:35 113:71 114:32 115:71 116:32 117:75 118:34 119:93 120:34 121:90 122:37 123:65 124:37 125:72 126:34 127:90 128:-1 
1 0:35 1:128 2:35 3:138 4:35 5:136 6:35 7:137 8:35 9:137 10:36 11:139 12:36 13:139 14:38 15:136 16:34 17:132 18:32 19:144 20:32 21:142 22:33 23:143 24:33 25:144 26:35 27:129 28:35 29:129 30:37 31:127 32:31 33:116 34:30 35:117 36:30 37:118 38:33 39:118 40:33 41:120 42:34 43:112 44:34 45:116 46:35 47:130 48:29 49:98 50:28 51:110 52:28 53:113 54:30 55:118 56:30 57:118 58:32 59:120 60:32 61:123 62:33 63:145 64:31 65:87 66:31 67:91 68:31 69:93 70:33 71:110 72:33 73:108 74:33 75:122 76:33 77:127 78:33 79:156 80:36 81:117 82:35 83:97 84:35 85:87 86:32 87:79 88:32 89:80 90:32 91:92 92:32 93:96 94:34 95:117 96:33 97:158 98:35 99:112 100:35 101:97 102:35 103:72 104:35 105:73 106:32 107:84 108:32 109:89 110:34 111:96 112:31 113:173 114:33 115:141 116:33 117:120 118:35 119:91 120:35 121:93 122:34 123:90 124:34 125:91 126:32 127:84 128:-1 
1 0:39 1:91 2:35 3:74 4:35 5:75 6:32 7:75 8:32 9:71 10:31 11:68 12:31 13:75 14:31 15:93 16:39 17:89 18:37 19:82 20:37 21:82 22:34 23:77 24:34 25:75 26:32 27:64 28:32 29:63 30:31 31:62 32:35 33:86 34:34 35:79 36:34 37:80 38:32 39:69 40:32 41:68 42:34 43:68 44:34 45:68 46:34 47:83 48:34 49:88 50:31 51:79 52:31 53:82 54:31 55:90 56:31 57:91 58:34 59:89 60:34 61:95 62:33 63:120 64:32 65:75 66:31 67:78 68:31 69:82 70:31 71:97 72:31 73:101 74:32 75:84 76:32 77:78 78:31 79:69 80:35 81:79 82:34 83:87 84:34 85:88 86:33 87:99 88:33 89:106 90:34 91:83 92:34 93:73 94:34 95:50 96:36 97:101 98:35 99:91 100:35 101:85 102:34 103:87 104:34 105:95 106:35 107:96 108:35 109:86 110:35 111:61 112:35 113:116 114:35 115:100 116:35 117:97 118:36 119:93 120:36 121:96 122:36 123:96 124:36 125:95 126:37 127:74 128:-1 
1 0:33 1:135 2:33 3:128 4:37 5:126 6:37 7:126 8:40 9:126 10:40 11:134 12:38 13:146 14:38 15:136 16:31 17:144 18:31 19:133 20:35 21:128 22:35 23:128 24:37 25:128 26:37 27:138 28:35 29:147 30:35 31:130 32:33 33:102 34:33 35:108 36:35 37:118 38:35 39:119 40:37 41:145 42:37 43:144 44:34 45:123 46:34 47:112 48:33 49:105 50:33 51:111 52:35 53:113 54:35 55:114 56:35 57:113 58:35 59:106 60:33 61:89 62:33 63:89 64:33 65:134 66:33 67:128 68:35 69:110 70:35 71:100 72:32 73:69 74:32 75:70 76:31 77:84 78:31 79:91 80:30 81:157 82:30 83:148 84:35 85:128 86:35 87:115 88:35 89:87 90:35 91:94 92:33 93:108 94:33 95:110 96:28 97:179 98:28 99:195 100:33 101:191 102:33 103:161 104:35 105:128 106:35 107:132 108:32 109:120 110:32 111:115 112:30 113:87 114:30 115:94 116:31 117:148 118:31 119:139 120:35 121:122 122:35 123:120 124:32 125:112 126:32 127:111 128:-1 
1 0:34 1:123 2:32 3:130 4:32 5:152 6:32 7:182 8:33 9:255 10:35 11:151 12:35 13:68 14:37 15:68 16:36 17:118 18:34 19:113 20:34 21:116 22:33 23:124 24:33 25:150 26:34 27:147 28:34 29:113 30:35 31:104 32:37 33:118 34:37 35:118 36:37 37:117 38:36 39:118 40:36 41:123 42:36 43:141 44:36 45:177 46:41 47:151 48:36 49:131 50:37 51:122 52:37 53:121 54:38 55:116 56:38 57:105 58:36 59:106 60:36 61:161 62:39 63:137 64:37 65:116 66:38 67:123 68:38 69:125 70:37 71:104 72:37 73:90 74:35 75:90 76:35 77:110 78:39 79:123 80:35 81:91 82:35 83:99 84:35 85:105 86:41 87:117 88:41 89:142 90:43 91:111 92:43 93:96 94:38 95:77 96:37 97:84 98:37 99:101 100:37 101:105 102:41 103:119 104:41 105:144 106:44 107:93 108:44 109:77 110:41 111:62 112:41 113:111 114:41 115:136 116:41 117:120 118:41 119:90 120:41 121:81 122:43 123:79 124:43 125:99 126:48 127:76 128:-1 
1 0:44 1:135 2:41 3:143 4:41 5:145 6:41 7:151 8:41 9:154 10:40 11:158 12:40 13:161 14:39 15:172 16:43 17:133 18:41 19:135 20:41 21:126 22:42 23:125 24:42 25:130 26:41 27:158 28:41 29:165 30:40 31:158 32:42 33:146 34:39 35:136 36:39 37:135 38:40 39:170 40:40 41:168 42:42 43:167 44:42 45:162 46:39 47:149 48:40 49:119 50:35 51:133 52:35 53:137 54:35 55:160 56:35 57:172 58:39 59:187 60:39 61:160 62:38 63:157 64:37 65:125 66:35 67:141 68:35 69:149 70:34 71:161 72:34 73:184 74:35 75:205 76:35 77:157 78:37 79:156 80:38 81:179 82:35 83:165 84:35 85:145 86:35 87:104 88:35 89:131 90:37 91:199 92:37 93:130 94:38 95:173 96:38 97:171 98:37 99:144 100:37 101:125 102:43 103:80 104:43 105:114 106:45 107:191 108:45 109:95 110:41 111:133 112:43 113:94 114:41 115:86 116:41 117:96 118:41 119:126 120:41 121:172 122:43 123:167 124:43 125:94 126:43 127:88 128:-1 
1 0:25 1:120 2:25 3:124 4:20 5:72 6:20 7:76 8:21 9:79 10:21 11:62 12:26 13:54 14:26 15:76 16:25 17:76 18:25 19:75 20:22 21:53 22:22 23:66 24:25 25:104 26:25 27:73 28:32 29:57 30:32 31:70 32:20 33:68 34:20 35:70 36:22 37:60 38:22 39:65 40:31 41:74 42:31 43:77 44:37 45:101 46:37 47:121 48:22 49:47 50:22 51:46 52:24 53:68 54:24 55:71 56:31 57:94 58:31 59:97 60:37 61:110 62:37 63:133 64:35 65:74 66:35 67:53 68:25 69:80 70:25 71:87 72:29 73:113 74:29 75:121 76:35 77:122 78:35 79:112 80:24 81:67 82:24 83:64 84:26 85:126 86:26 87:107 88:30 89:105 90:30 91:130 92:32 93:139 94:32 95:104 96:24 97:65 98:24 99:82 100:24 101:190 102:24 103:125 104:28 105:108 106:28 107:116 108:32 109:95 110:32 111:79 112:28 113:163 114:28 115:147 116:27 117:136 118:27 119:131 120:27 121:107 122:27 123:97 124:34 125:98 126:34 127:106 128:-1 
1 0:35 1:127 2:35 3:142 4:35 5:134 6:35 7:111 8:35 9:114 10:37 11:117 12:37 13:115 14:35 15:111 16:35 17:113 18:36 19:111 20:36 21:106 22:36 23:97 24:36 25:103 26:36 27:145 28:36 29:135 30:35 31:130 32:35 33:98 34:36 35:84 36:36 37:83 38:35 39:88 40:35 41:91 42:33 43:162 44:33 45:178 46:32 47:192 48:34 49:125 50:35 51:102 52:35 53:102 54:35 55:88 56:35 57:87 58:32 59:74 60:32 61:76 62:29 63:75 64:35 65:112 66:35 67:109 68:35 69:106 70:34 71:103 72:34 73:105 74:34 75:79 76:34 77:78 78:35 79:74 80:39 81:88 82:35 83:114 84:35 85:104 86:34 87:111 88:34 89:121 90:35 91:121 92:35 93:116 94:34 95:113 96:41 97:118 98:35 99:99 100:35 101:102 102:33 103:105 104:33 105:107 106:33 107:123 108:33 109:108 110:33 111:97 112:32 113:95 114:29 115:70 116:29 117:93 118:33 119:110 120:33 121:102 122:33 123:127 124:33 125:108 126:34 127:91 128:-1 
-0.9169921875 0:60 1:7 2:103 3:9 4:103 5:8 6:101 7:13 8:101 9:13 10:97 11:11 12:97 13:11 14:98 15:5 16:54 17:7 18:97 19:12 20:97 21:11 22:107 23:11 24:107 25:11 26:98 27:4 28:98 29:5 30:0 31:0 32:43 33:14 34:60 35:8 36:60 37:7 38:98 39:6 40:98 41:5 42:98 43:4 44:98 45:4 46:0 47:0 48:45 49:18 50:35 51:9 52:35 53:8 54:120 55:3 56:120 57:3 58:113 59:21 60:113 61:19 62:120 63:6 64:45 65:19 66:23 67:6 68:23 69:6 70:0 71:1 72:0 73:1 74:25 75:12 76:25 77:12 78:35 79:23 80:37 81:12 82:0 83:1 84:0 85:1 86:0 87:0 88:0 89:0 90:35 91:20 92:35 93:20 94:35 95:29 96:35 97:14 98:38 99:5 100:38 101:5 102:60 103:6 104:60 105:6 106:43 107:12 108:43 109:12 110:41 111:20 112:32 113:21 114:35 115:15 116:35 117:14 118:53 119:10 120:53 121:10 122:60 123:9 124:60 125:10 126:63 127:13 128:-1 
-0.9169921875 0:35 1:17 2:35 3:17 4:28 5:27 6:28 7:25 8:32 9:21 10:32 11:21 12:35 13:15 14:35 15:14 16:35 17:15 18:35 19:15 20:25 21:8 22:25 23:8 24:38 25:5 26:38 27:6 28:54 29:7 30:54 31:6 32:35 33:8 34:35 35:8 36:0 37:0 38:0 39:0 40:0 41:0 42:0 43:0 44:0 45:0 46:0 47:0 48:38 49:5 50:38 51:5 52:0 53:0 54:0 55:0 56:0 57:0 58:0 59:0 60:38 61:5 62:38 63:6 64:35 65:16 66:35 67:16 68:23 69:6 70:23 71:6 72:0 73:0 74:0 75:0 76:0 77:0 78:0 79:0 80:29 81:35 82:29 83:31 84:26 85:19 86:26 87:19 88:23 89:5 90:23 91:5 92:0 93:1 94:0 95:1 96:35 97:18 98:35 99:16 100:38 101:5 102:38 103:5 104:0 105:1 106:0 107:1 108:23 109:5 110:23 111:5 112:80 113:12 114:80 115:11 116:80 117:3 118:80 119:3 120:0 121:0 122:0 123:0 124:25 125:8 126:25 127:8 128:-1 
-0.9169921875 0:60 1:7 2:60 3:6 4:90 5:8 6:90 7:8 8:90 9:6 10:90 11:5 12:80 13:3 14:80 15:3 16:43 17:17 18:43 19:16 20:78 21:6 22:78 23:6 24:80 25:3 26:80 27:3 28:0 29:0 30:0 31:0 32:35 33:28 34:35 35:26 36:23 37:21 38:23 39:21 40:35 41:7 42:35 43:7 44:0 45:0 46:0 47:0 48:60 49:33 50:60 51:23 52:53 53:9 54:53 55:9 56:35 57:8 58:35 59:9 60:30 61:11 62:30 63:11 64:60 65:10 66:60 67:9 68:80 69:3 70:80 71:3 72:35 73:7 74:35 75:8 76:39 77:23 78:39 79:24 80:80 81:3 82:80 83:3 84:0 85:0 86:0 87:0 88:0 89:0 90:0 91:0 92:79 93:9 94:79 95:11 96:35 97:7 98:35 99:7 100:35 101:7 102:35 103:7 104:38 105:4 106:38 107:4 108:54 109:6 110:54 111:6 112:35 113:7 114:35 115:7 116:35 117:7 118:35 119:7 120:54 121:5 122:54 123:6 124:60 125:10 126:60 127:11 128:-1 
-0.9169921875 0:80 1:3 2:80 3:3 4:38 5:4 6:38 7:4 8:38 9:4 10:38 11:4 12:39 13:18 14:39 15:22 16:87 17:10 18:87 19:10 20:54 21:5 22:54 23:5 24:35 25:7 26:35 27:7 28:47 29:8 30:47 31:8 32:79 33:9 34:79 35:9 36:47 37:8 38:47 39:8 40:35 41:7 42:35 43:7 44:38 45:4 46:38 47:4 48:78 49:6 50:78 51:5 52:54 53:5 54:54 55:5 56:38 57:4 58:38 59:4 60:80 61:3 62:80 63:3 64:79 65:9 66:79 67:9 68:54 69:5 70:54 71:5 72:54 73:5 74:54 75:5 76:90 77:8 78:90 79:9 80:0 81:1 82:0 83:1 84:38 85:4 86:38 87:4 88:80 89:3 90:80 91:3 92:96 93:16 94:96 95:17 96:0 97:0 98:0 99:0 100:0 101:0 102:0 103:0 104:80 105:3 106:80 107:4 108:96 109:18 110:96 111:17 112:80 113:3 114:80 115:3 116:0 117:0 118:0 119:0 120:87 121:11 122:87 123:13 124:88 125:22 126:88 127:20 128:-1 
-0.9169921875 0:79 1:10 2:98 3:5 4:98 5:5 6:0 7:0 8:0 9:0 10:0 11:0 12:0 13:0 14:0 15:0 16:78 17:6 18:78 19:6 20:78 21:6 22:80 23:3 24:80 25:3 26:80 27:3 28:80 29:3 30:0 31:0 32:35 33:18 34:38 35:5 36:38 37:5 38:0 39:0 40:0 41:0 42:0 43:0 44:0 45:0 46:0 47:0 48:68 49:10 50:0 51:0 52:0 53:0 54:0 55:0 56:0 57:0 58:0 59:0 60:0 61:0 62:0 63:0 64:103 65:8 66:0 67:0 68:0 69:0 70:23 71:4 72:23 73:4 74:38 75:4 76:38 77:4 78:38 79:4 80:0 81:0 82:0 83:0 84:0 85:0 86:0 87:0 88:0 89:0 90:0 91:0 92:0 93:0 94:0 95:0 96:96 97:18 98:97 99:10 100:97 101:10 102:80 103:3 104:80 105:3 106:38 107:4 108:38 109:4 110:25 111:7 112:106 113:14 114:98 115:4 116:98 117:4 118:0 119:0 120:0 121:0 122:80 123:3 124:80 125:4 126:47 127:9 128:-1 
-0.9169921875 0:63 1:13 2:79 3:12 4:79 5:12 6:78 7:6 8:78 9:6 10:0 11:0 12:0 13:0 14:0 15:0 16:80 17:13 18:78 19:8 20:78 21:8 22:0 23:1 24:0 25:1 26:0 27:0 28:0 29:0 30:0 31:0 32:90 33:7 34:103 35:10 36:103 37:9 38:0 39:0 40:0 41:0 42:0 43:0 44:0 45:0 46:80 47:3 48:103 49:9 50:97 51:11 52:97 53:11 54:90 55:6 56:90 57:5 58:80 59:3 60:80 61:3 62:79 63:9 64:87 65:12 66:90 67:6 68:90 69:6 70:98 71:5 72:98 73:5 74:80 75:4 76:80 77:4 78:68 79:11 80:79 81:22 82:97 83:11 84:97 85:11 86:103 87:9 88:103 89:8 90:79 91:9 92:79 93:10 94:60 95:11 96:63 97:13 98:90 99:8 100:90 101:8 102:80 103:4 104:80 105:3 106:54 107:6 108:54 109:6 110:47 111:10 112:45 113:17 114:80 115:11 116:80 117:10 118:80 119:12 120:80 121:12 122:53 123:11 124:53 125:13 126:35 127:19 128:-1 
-0.9169921875 0:35 1:63 2:35 3:61 4:35 5:65 6:35 7:67 8:33 9:45 10:33 11:39 12:32 13:19 14:32 15:16 16:35 17:65 18:35 19:66 20:35 21:63 22:35 23:56 24:33 25:27 26:33 27:27 28:35 29:8 30:35 31:7 32:35 33:60 34:35 35:59 36:35 37:42 38:35 39:37 40:30 41:13 42:30 43:13 44:80 45:4 46:80 47:4 48:34 49:55 50:34 51:50 52:33 53:30 54:33 55:27 56:30 57:10 58:30 59:10 60:38 61:5 62:38 63:5 64:31 65:54 66:31 67:48 68:33 69:27 70:33 71:25 72:35 73:7 74:35 75:7 76:38 77:4 78:38 79:4 80:30 81:35 82:30 83:35 84:35 85:14 86:35 87:13 88:0 89:0 90:0 91:0 92:80 93:3 94:80 95:3 96:29 97:27 98:29 99:27 100:23 101:15 102:23 103:14 104:0 105:0 106:0 107:0 108:98 109:5 110:98 111:5 112:32 113:23 114:32 115:23 116:32 117:21 118:32 119:20 120:37 121:11 122:37 123:11 124:0 125:0 126:0 127:0 128:-1 
-0.9169921875 0:78 1:6 2:78 3:7 4:87 5:13 6:87 7:14 8:103 9:11 10:103 11:10 12:110 13:8 14:110 15:8 16:80 17:3 18:80 19:4 20:53 21:13 22:53 23:15 24:54 25:27 26:54 27:28 28:79 29:28 30:79 31:21 32:0 33:0 34:0 35:0 36:38 37:5 38:38 39:5 40:35 41:12 42:35 43:13 44:51 45:24 46:51 47:23 48:80 49:3 50:80 51:3 52:80 53:3 54:80 55:3 56:110 57:8 58:110 59:9 60:90 61:7 62:90 63:7 64:80 65:3 66:80 67:3 68:80 69:3 70:80 71:4 72:103 73:9 74:103 75:10 76:78 77:7 78:78 79:7 80:54 81:5 82:54 83:5 84:78 85:6 86:78 87:6 88:80 89:17 90:80 91:17 92:63 93:15 94:63 95:14 96:80 97:3 98:80 99:3 100:60 101:6 102:60 103:7 104:51 105:20 106:51 107:19 108:45 109:31 110:45 111:28 112:54 113:6 114:54 115:7 116:55 117:15 118:55 119:14 120:49 121:22 122:49 123:24 124:45 125:33 126:45 127:30 128:-1 
-0.9169921875 0:63 1:12 2:80 3:3 4:80 5:3 6:54 7:5 8:54 9:5 10:38 11:4 12:38 13:4 14:38 15:4 16:37 17:10 18:38 19:4 20:38 21:4 22:35 23:7 24:35 25:7 26:35 27:7 28:35 29:7 30:48 31:11 32:79 33:9 34:80 35:3 36:80 37:3 38:38 39:4 40:38 41:4 42:38 43:4 44:38 45:4 46:39 47:18 48:87 49:20 50:87 51:10 52:87 53:10 54:54 55:5 56:54 57:5 58:35 59:7 60:35 61:7 62:47 63:8 64:60 65:10 66:79 67:9 68:79 69:9 70:47 71:8 72:47 73:8 74:35 75:7 76:35 77:7 78:38 79:4 80:0 81:0 82:78 83:6 84:78 85:5 86:54 87:5 88:54 89:5 90:38 91:4 92:38 93:4 94:80 95:3 96:97 97:13 98:79 99:9 100:79 101:9 102:54 103:5 104:54 105:5 106:54 107:5 108:54 109:5 110:90 111:8 112:0 113:0 114:0 115:1 116:0 117:1 118:38 119:4 120:38 121:4 122:80 123:3 124:80 125:3 126:96 127:16 128:-1 
-0.9169921875 0:60 1:10 2:60 3:10 4:79 5:9 6:79 7:9 8:47 9:8 10:47 11:8 12:35 13:7 14:35 15:7 16:0 17:0 18:0 19:0 20:78 21:6 22:78 23:5 24:54 25:5 26:54 27:5 28:38 29:4 30:38 31:4 32:97 33:12 34:97 35:13 36:79 37:9 38:79 39:9 40:54 41:5 42:54 43:5 44:54 45:5 46:54 47:5 48:0 49:0 50:0 51:0 52:0 53:1 54:0 55:1 56:38 57:4 58:38 59:4 60:80 61:3 62:80 63:3 64:0 65:0 66:0 67:0 68:0 69:0 70:0 71:0 72:0 73:0 74:0 75:0 76:80 77:3 78:80 79:4 80:80 81:3 82:80 83:3 84:80 85:3 86:80 87:3 88:0 89:0 90:0 91:0 92:87 93:11 94:87 95:13 96:0 97:0 98:0 99:0 100:0 101:0 102:0 103:0 104:0 105:0 106:0 107:0 108:79 109:10 110:79 111:11 112:0 113:0 114:0 115:0 116:0 117:0 118:0 119:0 120:0 121:0 122:0 123:0 124:80 125:3 126:80 127:4 128:-1 
-0.9169921875 0:45 1:15 2:45 3:14 4:54 5:6 6:54 7:6 8:60 9:6 10:60 11:6 12:35 13:13 14:35 15:15 16:48 17:13 18:48 19:12 20:54 21:6 22:54 23:6 24:80 25:4 26:80 27:3 28:35 29:7 30:35 31:7 32:53 33:10 34:53 35:9 36:60 37:6 38:60 39:6 40:78 41:6 42:78 43:6 44:35 45:6 46:35 47:7 48:80 49:4 50:80 51:4 52:78 53:6 54:78 55:6 56:80 57:3 58:80 59:3 60:54 61:5 62:54 63:5 64:78 65:6 66:78 67:6 68:79 69:10 70:79 71:9 72:80 73:3 74:80 75:3 76:80 77:3 78:80 79:3 80:79 81:9 82:79 83:10 84:80 85:15 86:80 87:14 88:80 89:10 90:80 91:10 92:78 93:5 94:78 95:5 96:49 97:24 98:49 99:25 100:63 101:23 102:63 103:23 104:79 105:21 106:79 107:20 108:80 109:10 110:80 111:10 112:44 113:42 114:44 115:48 116:49 117:52 118:49 119:52 120:59 121:36 122:59 123:33 124:67 125:23 126:67 127:23 128:-1 
-0.916015625 0:51 1:17 2:42 3:25 4:42 5:26 6:42 7:27 8:42 9:27 10:45 11:27 12:45 13:25 14:51 15:16 16:54 17:18 18:45 19:15 20:45 21:16 22:45 23:16 24:45 25:16 26:51 27:16 28:51 29:16 30:55 31:13 32:60 33:18 34:58 35:15 36:58 37:15 38:68 39:10 40:68 41:9 42:54 43:6 44:54 45:6 46:60 47:6 48:55 49:28 50:62 51:15 52:62 53:15 54:78 55:6 56:78 57:6 58:78 59:6 60:78 61:6 62:80 63:3 64:53 65:32 66:64 67:18 68:64 69:17 70:78 71:6 72:78 73:6 74:79 75:9 76:79 77:9 78:68 79:9 80:49 81:33 82:54 83:16 84:54 85:16 86:60 87:6 88:60 89:6 90:55 91:13 92:55 93:13 94:47 95:23 96:49 97:31 98:55 99:21 100:55 101:21 102:51 103:20 104:51 105:21 106:45 107:27 108:45 109:27 110:44 111:43 112:44 113:45 114:49 115:33 116:49 117:33 118:49 119:32 120:49 121:33 122:43 123:47 124:43 125:48 126:40 127:63 128:-1 
-0.041015625 0:33 1:29 2:35 3:12 4:35 5:12 6:35 7:7 8:35 9:7 10:35 11:7 12:35 13:6 14:38 15:4 16:33 17:24 18:37 19:10 20:37 21:10 22:35 23:7 24:35 25:7 26:35 27:7 28:35 29:7 30:35 31:7 32:35 33:19 34:37 35:10 36:37 37:10 38:35 39:7 40:35 41:7 42:35 43:7 44:35 45:7 46:35 47:7 48:35 49:14 50:37 51:10 52:37 53:10 54:35 55:7 56:35 57:7 58:35 59:7 60:35 61:7 62:38 63:4 64:36 65:17 66:37 67:10 68:37 69:10 70:35 71:7 72:35 73:7 74:35 75:7 76:35 77:7 78:35 79:14 80:35 81:25 82:37 83:10 84:37 85:10 86:35 87:7 88:35 89:7 90:36 91:17 92:36 93:17 94:34 95:38 96:35 97:19 98:35 99:19 100:35 101:20 102:33 103:32 104:33 105:32 106:32 107:54 108:32 109:57 110:32 111:76 112:31 113:36 114:33 115:47 116:33 117:48 118:33 119:63 120:33 121:64 122:34 123:78 124:34 125:79 126:33 127:78 128:-1 
-0.875 0:33 1:29 2:35 3:12 4:35 5:12 6:35 7:7 8:35 9:7 10:35 11:7 12:35 13:6 14:38 15:4 16:33 17:24 18:37 19:10 20:37 21:10 22:35 23:7 24:35 25:7 26:35 27:7 28:35 29:7 30:35 31:7 32:35 33:19 34:37 35:10 36:37 37:10 38:35 39:7 40:35 41:7 42:35 43:7 44:35 45:7 46:35 47:7 48:35 49:14 50:37 51:10 52:37 53:10 54:35 55:7 56:35 57:7 58:35 59:7 60:35 61:7 62:38 63:4 64:36 65:17 66:37 67:10 68:37 69:10 70:35 71:7 72:35 73:7 74:35 75:7 76:35 77:7 78:35 79:14 80:35 81:25 82:37 83:10 84:37 85:10 86:35 87:7 88:35 89:7 90:36 91:17 92:36 93:17 94:34 95:38 96:35 97:19 98:35 99:19 100:35 101:20 102:33 103:32 104:33 105:32 106:32 107:54 108:32 109:57 110:32 111:76 112:31 113:36 114:33 115:47 116:33 117:48 118:33 119:63 120:33 121:64 122:34 123:78 124:34 125:79 126:33 127:78 128:-1 
-0.916015625 0:42 1:27 2:42 3:26 4:60 5:22 6:60 7:24 8:71 9:27 10:71 11:24 12:80 13:11 14:80 15:11 16:35 17:8 18:35 19:7 20:78 21:5 22:78 23:5 24:80 25:3 26:80 27:3 28:0 29:0 30:0 31:0 32:54 33:6 34:54 35:6 36:80 37:3 38:80 39:3 40:80 41:3 42:80 43:3 44:0 45:0 46:0 47:0 48:79 49:10 50:79 51:9 52:90 53:5 54:90 55:6 56:90 57:6 58:90 59:6 60:78 61:6 62:78 63:6 64:87 65:11 66:87 67:11 68:97 69:10 70:97 71:10 72:107 73:10 74:107 75:10 76:90 77:16 78:90 79:18 80:90 81:17 82:90 83:16 84:97 85:10 86:97 87:10 88:98 89:4 90:98 91:4 92:90 93:6 94:90 95:7 96:85 97:16 98:85 99:15 100:97 101:10 102:97 103:10 104:98 105:4 106:98 107:4 108:98 109:5 110:98 111:5 112:80 113:12 114:80 115:11 116:98 117:4 118:98 119:4 120:80 121:3 122:80 123:3 124:90 125:6 126:90 127:6 128:-1 
-0.916015625 0:45 1:30 2:62 3:19 4:62 5:18 6:80 7:12 8:80 9:11 10:98 11:4 12:98 13:4 14:80 15:3 16:42 17:23 18:60 19:11 20:60 21:11 22:79 23:10 24:79 25:9 26:80 27:3 28:80 29:3 30:54 31:6 32:54 33:6 34:98 35:5 36:98 37:5 38:90 39:6 40:90 41:5 42:80 43:3 44:80 45:4 46:54 47:7 48:80 49:4 50:80 51:4 52:80 53:4 54:80 55:4 56:80 57:4 58:0 59:0 60:0 61:0 62:35 63:9 64:53 65:11 66:45 67:17 68:45 69:17 70:51 71:18 72:51 73:19 74:35 75:9 76:35 77:9 78:47 79:10 80:58 81:17 82:51 83:19 84:51 85:18 86:43 87:16 88:43 89:17 90:35 91:16 92:35 93:16 94:60 95:7 96:49 97:23 98:51 99:17 100:51 101:16 102:53 103:10 104:53 105:10 106:43 107:12 108:43 109:12 110:60 111:7 112:48 113:13 114:58 115:15 116:58 117:15 118:53 119:10 120:53 121:9 122:35 123:7 124:35 125:8 126:78 127:7 128:-1 
-0.916015625 0:54 1:19 2:54 3:19 4:58 5:16 6:58 7:16 8:48 9:14 10:48 11:14 12:45 13:17 14:45 15:18 16:60 17:10 18:60 19:11 20:63 21:13 22:63 23:13 24:58 25:16 26:58 27:17 28:51 29:18 30:51 31:20 32:60 33:10 34:60 35:11 36:60 37:11 38:60 39:11 40:60 41:11 42:60 43:11 44:60 45:11 46:60 47:11 48:55 49:15 50:55 51:14 52:55 53:15 54:55 55:16 56:55 57:16 58:55 59:15 60:69 61:14 62:69 63:12 64:60 65:10 66:60 67:10 68:43 69:12 70:43 71:12 72:55 73:15 74:55 75:15 76:63 77:13 78:63 79:12 80:60 81:6 82:60 83:6 84:53 85:10 86:53 87:10 88:60 89:11 90:60 91:11 92:63 93:13 94:63 95:13 96:47 97:8 98:47 99:9 100:48 101:14 102:48 103:14 104:58 105:17 106:58 107:17 108:69 109:14 110:69 111:15 112:37 113:12 114:37 115:13 116:51 117:19 118:51 119:19 120:62 121:19 122:62 123:18 124:80 125:17 126:80 127:17 128:-1 
-0.9169921875 0:38 1:4 2:38 3:4 4:0 5:0 6:0 7:0 8:54 9:6 10:54 11:6 12:45 13:15 14:45 15:17 16:38 17:4 18:38 19:4 20:38 21:4 22:38 23:4 24:60 25:6 26:60 27:6 28:52 29:25 30:52 31:29 32:35 33:7 34:35 35:7 36:38 37:4 38:38 39:4 40:60 41:10 42:60 43:11 44:55 45:33 46:55 47:42 48:38 49:4 50:38 51:4 52:60 53:5 54:60 55:6 56:58 57:21 58:58 59:21 60:47 61:42 62:47 63:48 64:0 65:0 66:0 67:0 68:60 69:9 70:60 71:10 72:55 73:36 74:55 75:35 76:42 77:51 78:42 79:53 80:35 81:7 82:35 83:7 84:49 85:19 86:49 87:22 88:47 89:44 90:47 91:42 92:41 93:53 94:41 95:57 96:35 97:7 98:35 99:7 100:36 101:20 102:36 103:22 104:39 105:42 106:39 107:41 108:37 109:48 110:37 111:52 112:35 113:23 114:35 115:23 116:35 117:26 118:35 119:26 120:39 121:39 122:39 123:39 124:38 125:48 126:38 127:49 128:-1 
-0.9169921875 0:38 1:4 2:38 3:4 4:38 5:4 6:38 7:4 8:35 9:7 10:35 11:7 12:49 13:19 14:49 15:22 16:38 17:4 18:38 19:4 20:38 21:4 22:38 23:5 24:35 25:7 26:35 27:7 28:36 29:20 30:36 31:22 32:35 33:7 34:35 35:7 36:35 37:14 38:35 39:14 40:35 41:23 42:35 43:23 44:35 45:26 46:35 47:26 48:47 49:8 50:47 51:9 52:39 53:21 54:39 55:22 56:35 57:34 58:35 59:33 60:38 61:37 62:38 63:36 64:43 65:14 66:43 67:15 68:35 69:24 70:35 71:25 72:35 73:42 74:35 75:39 76:37 77:45 78:37 79:47 80:32 81:21 82:32 83:22 84:29 85:34 86:29 87:36 88:33 89:27 90:33 91:24 92:39 93:36 94:39 95:45 96:47 97:26 98:47 99:27 100:35 101:39 102:35 103:40 104:35 105:27 106:35 107:24 108:35 109:31 110:35 111:36 112:39 113:35 114:39 115:37 116:35 117:34 118:35 119:33 120:35 121:31 122:35 123:30 124:33 125:43 126:33 127:42 128:-1 
-0.9169921875 0:32 1:23 2:32 3:23 4:32 5:21 6:32 7:20 8:37 9:11 10:37 11:11 12:0 13:0 14:0 15:0 16:47 17:27 18:47 19:25 20:45 21:18 22:45 23:16 24:47 25:8 26:47 27:8 28:0 29:0 30:0 31:0 32:51 33:26 34:51 35:22 36:38 37:5 38:38 39:4 40:0 41:0 42:0 43:0 44:78 45:6 46:78 47:6 48:51 49:18 50:51 51:16 52:37 53:10 54:37 55:10 56:80 57:3 58:80 59:4 60:80 61:11 62:80 63:12 64:60 65:6 66:60 67:6 68:38 69:4 70:38 71:4 72:0 73:0 74:0 75:0 76:80 77:4 78:80 79:4 80:0 81:0 82:0 83:0 84:0 85:0 86:0 87:0 88:0 89:0 90:0 91:0 92:0 93:0 94:0 95:0 96:0 97:0 98:0 99:0 100:0 101:0 102:0 103:0 104:0 105:0 106:0 107:0 108:80 109:3 110:80 111:3 112:80 113:3 114:80 115:3 116:78 117:5 118:78 119:6 120:80 121:11 122:80 123:10 124:80 125:3 126:80 127:3 128:-1 
-0.9169921875 0:37 1:172 2:35 3:40 4:35 5:28 6:37 7:10 8:37 9:11 10:35 11:7 12:35 13:7 14:37 15:11 16:39 17:80 18:13 19:18 20:13 21:17 22:38 23:4 24:38 25:4 26:78 27:6 28:78 29:7 30:80 31:17 32:35 33:22 34:3 35:10 36:3 37:10 38:38 39:4 40:38 41:4 42:0 43:0 44:0 45:0 46:47 47:9 48:53 49:9 50:80 51:3 52:80 53:3 54:0 55:0 56:0 57:0 58:38 59:5 60:38 61:5 62:36 63:22 64:0 65:0 66:0 67:0 68:0 69:0 70:0 71:0 72:0 73:0 74:35 75:8 76:35 77:9 78:42 79:34 80:78 81:5 82:0 83:0 84:0 85:0 86:0 87:0 88:0 89:0 90:60 91:12 92:60 93:15 94:50 95:43 96:78 97:6 98:120 99:3 100:120 101:3 102:35 103:8 104:35 105:10 106:47 107:58 108:47 109:110 110:45 111:103 112:0 113:0 114:120 115:3 116:120 117:3 118:25 119:8 120:25 121:9 122:33 123:37 124:33 125:44 126:31 127:60 128:-1 
-0.9169921875 0:38 1:5 2:38 3:4 4:80 5:3 6:80 7:4 8:53 9:13 10:53 11:15 12:54 13:27 14:54 15:28 16:38 17:5 18:38 19:5 20:0 21:0 22:0 23:0 24:38 25:5 26:38 27:5 28:35 29:12 30:35 31:13 32:80 33:4 34:80 35:4 36:80 37:3 38:80 39:3 40:80 41:3 42:80 43:3 44:110 45:8 46:110 47:9 48:80 49:14 50:80 51:13 52:80 53:3 54:80 55:3 56:80 57:3 58:80 59:4 60:103 61:9 62:103 63:10 64:60 65:9 66:60 67:9 68:54 69:5 70:54 71:5 72:78 73:6 74:78 75:6 76:80 77:17 78:80 79:17 80:0 81:0 82:0 83:0 84:80 85:3 86:80 87:3 88:60 89:6 90:60 91:7 92:51 93:20 94:51 95:19 96:38 97:4 98:38 99:4 100:54 101:6 102:54 103:7 104:55 105:15 106:55 107:14 108:49 109:22 110:49 111:24 112:0 113:0 114:0 115:0 116:54 117:6 118:54 119:7 120:43 121:12 122:43 123:11 124:43 125:16 126:43 127:17 128:-1 
-0.916015625 0:0 1:0 2:0 3:0 4:0 5:0 6:0 7:0 8:0 9:0 10:0 11:0 12:23 13:5 14:23 15:5 16:120 17:5 18:120 19:5 20:120 21:2 22:120 23:2 24:0 25:0 26:0 27:0 28:38 29:5 30:38 31:5 32:140 33:4 34:140 35:4 36:0 37:0 38:0 39:0 40:0 41:0 42:0 43:0 44:38 45:6 46:38 47:5 48:38 49:6 50:38 51:5 52:0 53:0 54:0 55:0 56:0 57:1 58:0 59:1 60:23 61:5 62:23 63:5 64:25 65:8 66:25 67:8 68:0 69:0 70:0 71:0 72:0 73:0 74:0 75:0 76:35 77:8 78:35 79:8 80:0 81:1 82:0 83:1 84:0 85:0 86:0 87:0 88:0 89:0 90:0 91:0 92:35 93:7 94:35 95:8 96:80 97:5 98:80 99:4 100:0 101:0 102:0 103:0 104:23 105:5 106:23 107:5 108:26 109:19 110:26 111:21 112:43 113:13 114:43 115:12 116:35 117:8 118:35 119:8 120:37 121:12 122:37 123:14 124:35 125:40 126:35 127:44 128:-1 
-0.916015625 0:78 1:6 2:90 3:8 4:90 5:9 6:80 7:16 8:80 9:17 10:54 11:21 12:54 13:20 14:35 15:18 16:43 17:16 18:60 19:6 20:60 21:7 22:69 23:14 24:69 25:14 26:55 27:15 28:55 29:13 30:37 31:11 32:35 33:10 34:60 35:7 36:60 37:7 38:79 39:11 40:79 41:11 42:47 43:9 44:47 45:9 46:30 47:10 48:37 49:14 50:37 51:13 52:37 53:12 54:35 55:8 56:35 57:8 58:35 59:8 60:35 61:8 62:35 63:18 64:35 65:15 66:35 67:15 68:35 69:15 70:35 71:8 72:35 73:7 74:35 75:8 76:35 77:9 78:43 79:17 80:43 81:18 82:45 83:19 84:45 85:19 86:72 87:18 88:72 89:16 90:47 91:9 92:47 93:10 94:35 95:19 96:60 97:8 98:48 99:16 100:48 101:15 102:51 103:18 104:51 105:18 106:44 107:21 108:44 109:22 110:35 111:27 112:48 113:14 114:35 115:15 116:35 117:14 118:35 119:15 120:35 121:15 122:44 123:22 124:44 125:23 126:42 127:31 128:-1 
-0.916015625 0:43 1:13 2:43 3:12 4:0 5:0 6:0 7:0 8:120 9:2 10:120 11:2 12:120 13:2 14:120 15:2 16:51 17:18 18:51 19:17 20:0 21:0 22:0 23:0 24:120 25:2 26:120 27:3 28:90 29:8 30:90 31:8 32:35 33:25 34:35 35:23 36:30 37:10 38:30 39:10 40:0 41:0 42:0 43:0 44:48 45:16 46:48 47:17 48:38 49:5 50:38 51:5 52:0 53:0 54:0 55:0 56:38 57:5 58:38 59:5 60:53 61:10 62:53 63:11 64:90 65:7 66:90 67:6 68:90 69:6 70:90 71:6 72:0 73:0 74:0 75:0 76:54 77:6 78:54 79:6 80:79 81:10 82:79 83:10 84:79 85:11 86:79 87:10 88:78 89:6 90:78 91:6 92:78 93:6 94:78 95:6 96:90 97:6 98:90 99:6 100:90 101:9 102:90 103:9 104:85 105:16 106:85 107:16 108:79 109:11 110:79 111:11 112:0 113:0 114:0 115:0 116:90 117:7 118:90 119:7 120:78 121:7 122:78 123:7 124:0 125:0 126:0 127:0 128:-1 
