svm_type c_svc
kernel_type rbf
gamma 0.0078125
nr_class 2
total_sv 8
rho 0
label 1 -1
nr_sv 4 4
SV
1 0:38 1:155 2:38 3:143 4:36 5:173 6:36 7:190 8:36 9:177 10:36 11:173 12:34 13:160 14:34 15:181 16:39 17:164 18:39 19:147 20:37 21:164 22:37 23:190 24:36 25:172 26:36 27:153 28:34 29:127 30:34 31:146 32:37 33:174 34:37 35:161 36:37 37:172 38:37 39:183 40:35 41:163 42:35 43:147 44:35 45:116 46:35 47:129 48:36 49:146 50:36 51:134 52:38 53:147 54:38 55:147 56:38 57:122 58:38 59:120 60:37 61:131 62:37 63:139 64:41 65:121 66:41 67:116 68:38 69:119 70:38 71:117 72:37 73:104 74:37 75:117 76:37 77:159 78:37 79:148 80:42 81:129 82:42 83:129 84:39 85:131 86:39 87:126 88:39 89:104 90:39 91:123 92:39 93:200 94:39 95:176 96:41 97:255 98:39 99:203 100:43 101:158 102:43 103:126 104:43 105:118 106:43 107:125 108:42 109:180 110:42 111:252 112:38 113:201 114:38 115:194 116:43 117:201 118:43 119:183 120:43 121:148 122:43 123:131 124:42 125:142 126:42 127:191 128:-1 
1 0:35 1:143 2:35 3:122 4:39 5:97 6:39 7:94 8:39 9:90 10:39 11:103 12:39 13:172 14:39 15:162 16:42 17:183 18:42 19:174 20:44 21:137 22:44 23:116 24:43 25:111 26:43 27:117 28:36 29:109 30:36 31:100 32:37 33:195 34:37 35:169 36:43 37:127 38:43 39:116 40:45 41:103 42:45 43:103 44:39 45:121 46:39 47:117 48:35 49:156 50:35 51:146 52:40 53:166 54:40 55:144 56:41 57:119 58:41 59:107 60:38 61:124 62:38 63:129 64:37 65:94 66:37 67:107 68:37 69:144 70:37 71:120 72:37 73:113 74:37 75:113 76:38 77:133 78:38 79:141 80:37 81:95 82:37 83:113 84:36 85:157 86:36 87:156 88:36 89:164 90:36 91:159 92:38 93:150 94:38 95:160 96:40 97:153 98:40 99:177 100:38 101:192 102:38 103:218 104:36 105:223 106:36 107:151 108:41 109:107 110:41 111:108 112:38 113:151 114:38 115:177 116:37 117:190 118:37 119:251 120:37 121:173 122:37 123:121 124:42 125:138 126:42 127:133 128:-1 
1 0:32 1:78 2:29 3:73 4:29 5:77 6:26 7:93 8:26 9:98 10:35 11:154 12:35 13:168 14:41 15:163 16:35 17:95 18:34 19:80 20:34 21:77 22:28 23:86 24:28 25:94 26:32 27:140 28:32 29:141 30:38 31:155 32:35 33:107 34:35 35:102 36:35 37:109 38:32 39:83 40:32 41:80 42:34 43:92 44:34 45:97 46:36 47:100 48:34 49:101 50:37 51:123 52:37 53:155 54:36 55:157 56:36 57:147 58:34 59:133 60:34 61:138 62:35 63:121 64:36 65:100 66:37 67:128 68:37 69:135 70:36 71:181 72:36 73:186 74:35 75:152 76:35 77:179 78:35 79:187 80:39 81:118 82:38 83:128 84:38 85:117 86:39 87:102 88:39 89:102 90:39 91:78 92:39 93:92 94:35 95:129 96:40 97:143 98:40 99:164 100:40 101:140 102:38 103:122 104:38 105:119 106:37 107:77 108:37 109:73 110:31 111:51 112:40 113:136 114:42 115:140 116:42 117:129 118:41 119:120 120:41 121:118 122:37 123:91 124:37 125:79 126:32 127:56 128:-1 
1 0:35 1:99 2:35 3:98 4:35 5:93 6:27 7:96 8:27 9:109 10:25 11:126 12:25 13:118 14:24 15:105 16:34 17:90 18:29 19:84 20:29 21:94 22:25 23:139 24:25 25:136 26:22 27:138 28:22 29:131 30:21 31:111 32:32 33:73 34:26 35:78 36:26 37:87 38:23 39:111 40:23 41:108 42:21 43:106 44:21 45:105 46:23 47:77 48:29 49:79 50:24 51:77 52:24 53:80 54:23 55:82 56:23 57:79 58:24 59:97 60:24 61:122 62:27 63:65 64:33 65:111 66:31 67:75 68:31 69:75 70:25 71:76 72:25 73:75 74:26 75:90 76:26 77:101 78:25 79:68 80:32 81:94 82:35 83:66 84:35 85:64 86:26 87:72 88:26 89:89 90:29 91:108 92:29 93:98 94:29 95:99 96:24 97:97 98:27 99:121 100:27 101:102 102:29 103:88 104:29 105:112 106:29 107:111 108:29 109:98 110:32 111:82 112:25 113:131 114:26 115:175 116:26 117:140 118:28 119:116 120:28 121:127 122:29 123:97 124:29 125:92 126:29 127:58 128:-1 
-1 0:73 1:23 2:87 3:23 4:87 5:20 6:87 7:10 8:87 9:10 10:54 11:5 12:54 13:5 14:35 15:7 16:47 17:26 18:60 19:10 20:60 21:10 22:79 23:9 24:79 25:9 26:47 27:8 28:47 29:8 30:35 31:7 32:47 33:8 34:0 35:0 36:0 37:0 38:78 39:6 40:78 41:5 42:54 43:5 44:54 45:5 46:38 47:4 48:79 49:10 50:97 51:12 52:97 53:13 54:79 55:9 56:79 57:9 58:54 59:5 60:54 61:5 62:54 63:5 64:78 65:6 66:0 67:0 68:0 69:0 70:0 71:1 72:0 73:1 74:38 75:4 76:38 77:4 78:80 79:3 80:98 81:5 82:0 83:0 84:0 85:0 86:0 87:0 88:0 89:0 90:0 91:0 92:0 93:0 94:80 95:3 96:78 97:6 98:80 99:3 100:80 101:3 102:80 103:3 104:80 105:3 106:0 107:0 108:0 109:0 110:87 111:11 112:38 113:5 114:0 115:0 116:0 117:0 118:0 119:0 120:0 121:0 122:0 123:0 124:0 125:0 126:79 127:10 128:-1 
-1 0:35 1:17 2:35 3:18 4:60 5:7 6:60 7:6 8:54 9:5 10:54 11:5 12:54 13:5 14:54 15:5 16:53 17:11 18:53 19:11 20:60 21:6 22:60 23:5 24:38 25:4 26:38 27:4 28:38 29:4 30:38 31:4 32:63 33:14 34:63 35:12 36:80 37:3 38:80 39:3 40:54 41:5 42:54 43:5 44:38 45:4 46:38 47:4 48:37 49:11 50:37 51:10 52:38 53:4 54:38 55:4 56:35 57:7 58:35 59:7 60:35 61:7 62:35 63:7 64:79 65:9 66:79 67:9 68:80 69:3 70:80 71:3 72:38 73:4 74:38 75:4 76:38 77:4 78:38 79:4 80:87 81:23 82:87 83:20 84:87 85:10 86:87 87:10 88:54 89:5 90:54 91:5 92:35 93:7 94:35 95:7 96:60 97:10 98:60 99:10 100:79 101:9 102:79 103:9 104:47 105:8 106:47 107:8 108:35 109:7 110:35 111:7 112:0 113:0 114:0 115:0 116:78 117:6 118:78 119:5 120:54 121:5 122:54 123:5 124:38 125:4 126:38 127:4 128:-1 
-1 0:45 1:27 2:45 3:23 4:54 5:5 6:54 7:5 8:80 9:3 10:80 11:3 12:0 13:0 14:0 15:0 16:35 17:13 18:35 19:12 20:38 21:4 22:38 23:4 24:35 25:7 26:35 27:7 28:35 29:7 30:35 31:7 32:23 33:5 34:23 35:4 36:38 37:4 38:38 39:4 40:35 41:7 42:35 43:7 44:35 45:7 46:35 47:7 48:80 49:4 50:80 51:3 52:38 53:4 54:38 55:4 56:38 57:4 58:38 59:4 60:38 61:4 62:38 63:4 64:54 65:5 66:54 67:5 68:54 69:5 70:54 71:5 72:38 73:4 74:38 75:4 76:38 77:4 78:38 79:4 80:38 81:4 82:38 83:4 84:38 85:4 86:38 87:4 88:38 89:4 90:38 91:4 92:0 93:0 94:0 95:0 96:54 97:5 98:54 99:5 100:38 101:4 102:38 103:4 104:38 105:4 106:38 107:4 108:35 109:7 110:35 111:8 112:35 113:7 114:35 115:7 116:35 117:7 118:35 119:7 120:48 121:11 122:48 123:12 124:45 125:30 126:45 127:34 128:-1 
-1 0:45 1:36 2:35 3:28 4:35 5:26 6:23 7:21 8:23 9:21 10:35 11:7 12:35 13:7 14:0 15:0 16:51 17:110 18:60 19:33 20:60 21:23 22:53 23:9 24:53 25:9 26:35 27:8 28:35 29:9 30:30 31:11 32:52 33:32 34:60 35:10 36:60 37:9 38:80 39:3 40:80 41:3 42:35 43:7 44:35 45:8 46:39 47:23 48:54 49:5 50:80 51:3 52:80 53:3 54:0 55:0 56:0 57:0 58:0 59:0 60:0 61:0 62:79 63:9 64:38 65:4 66:35 67:7 68:35 69:7 70:35 71:7 72:35 73:7 74:38 75:4 76:38 77:4 78:54 79:6 80:38 81:4 82:35 83:7 84:35 85:7 86:35 87:7 88:35 89:7 90:54 91:5 92:54 93:6 94:60 95:10 96:38 97:4 98:38 99:4 100:38 101:4 102:38 103:4 104:38 105:4 106:60 107:5 108:60 109:7 110:55 111:27 112:54 113:5 114:38 115:4 116:38 117:4 118:38 119:4 120:38 121:4 122:60 123:5 124:60 125:7 126:51 127:23 128:-1 
