svm_type c_svc
kernel_type polynomial
degree 3
gamma 0.00520833
coef0 0
nr_class 2
total_sv 15
rho -1.83487
label 1 -1
nr_sv 5 10
SV
6.28868488281065e-11 0:35 1:22 2:125 3:30 4:17 5:121 6:30 7:17 8:120 9:25 10:13 11:122 12:25 13:12 14:123 15:35 16:13 17:122 18:35 19:13 20:122 21:25 22:13 23:121 24:34 25:17 26:122 27:25 28:13 29:120 30:25 31:13 32:119 33:35 34:13 35:120 36:35 37:13 38:121 39:36 40:10 41:123 42:36 43:11 44:121 45:36 46:11 47:121 48:35 49:12 50:123 51:25 52:13 53:122 54:35 55:13 56:121 57:35 58:13 59:122 60:36 61:10 62:122 63:36 64:10 65:124 66:42 67:11 68:119 69:42 70:11 71:120 72:36 73:10 74:123 75:36 76:10 77:122 78:36 79:10 80:122 81:36 82:11 83:121 84:50 85:6 86:121 87:50 88:6 89:121 90:66 91:10 92:122 93:66 94:11 95:121 96:36 97:10 98:122 99:36 100:10 101:122 102:30 103:4 104:121 105:50 106:6 107:122 108:50 109:6 110:122 111:66 112:10 113:122 114:70 115:13 116:120 117:70 118:13 119:117 120:30 121:4 122:121 123:30 124:4 125:121 126:0 127:0 128:121 129:75 130:4 131:122 132:75 133:4 134:121 135:83 136:9 137:120 138:80 139:13 140:120 141:80 142:13 143:117 144:30 145:4 146:122 147:0 148:0 149:122 150:75 151:4 152:122 153:75 154:4 155:120 156:83 157:9 158:119 159:80 160:13 161:122 162:80 163:13 164:121 165:80 166:19 167:120 168:50 169:6 170:123 171:75 172:4 173:122 174:75 175:4 176:121 177:75 178:4 179:120 180:83 181:9 182:120 183:80 184:12 185:123 186:80 187:13 188:121 189:80 190:13 191:117 192:-1 
5.008336921906228e-12 0:16 1:55 2:171 3:16 4:55 5:173 6:17 7:53 8:174 9:17 10:52 11:175 12:19 13:51 14:171 15:19 16:50 17:173 18:21 19:52 20:173 21:21 22:52 23:171 24:16 25:54 26:175 27:16 28:54 29:175 30:17 31:52 32:176 33:17 34:52 35:176 36:19 37:50 38:174 39:19 40:50 41:173 42:20 43:50 44:170 45:20 46:50 47:169 48:18 49:57 50:176 51:18 52:56 53:174 54:17 55:52 56:176 57:17 58:52 59:176 60:18 61:47 62:172 63:18 64:49 65:167 66:18 67:50 68:164 69:19 70:48 71:165 72:19 73:61 74:175 75:20 76:59 77:173 78:18 79:55 80:175 81:19 82:50 83:174 84:17 85:46 86:168 87:17 88:46 89:165 90:17 91:45 92:165 93:17 94:44 95:170 96:20 97:59 98:176 99:22 100:60 101:173 102:22 103:57 104:173 105:21 106:56 107:172 108:19 109:52 110:168 111:18 112:48 113:171 114:17 115:44 116:175 117:17 118:43 119:179 120:22 121:57 122:176 123:22 124:63 125:174 126:23 127:66 128:173 129:25 130:65 131:173 132:24 133:61 134:176 135:23 136:57 137:178 138:21 139:50 140:180 141:20 142:46 143:181 144:22 145:56 146:179 147:22 148:62 149:178 150:25 151:65 152:177 153:25 154:68 155:177 156:27 157:63 158:175 159:26 160:61 161:177 162:24 163:51 164:179 165:24 166:47 167:179 168:20 169:58 170:180 171:22 172:62 173:177 174:25 175:66 176:175 177:25 178:68 179:175 180:27 181:63 182:175 183:27 184:59 185:177 186:26 187:50 188:178 189:24 190:47 191:179 192:-1 
2.089748160424391e-11 0:23 1:20 2:151 3:32 4:23 5:154 6:32 7:23 8:157 9:35 10:27 11:159 12:35 13:27 14:160 15:34 16:22 17:162 18:35 19:21 20:161 21:35 22:17 23:162 24:26 25:25 26:154 27:32 28:23 29:158 30:32 31:26 32:160 33:32 34:25 35:161 36:32 37:25 38:162 39:34 40:22 41:165 42:35 43:20 44:164 45:35 46:17 47:163 48:32 49:26 50:158 51:32 52:25 53:163 54:32 55:25 56:165 57:32 58:25 59:164 60:32 61:22 62:166 63:35 64:20 65:165 66:35 67:17 68:164 69:34 70:12 71:164 72:35 73:27 74:161 75:35 76:27 77:162 78:35 79:26 80:165 81:34 82:22 83:165 84:35 85:20 86:164 87:30 88:16 89:164 90:30 91:12 92:165 93:25 94:9 95:166 96:35 97:26 98:165 99:35 100:26 101:165 102:34 103:22 104:164 105:35 106:20 107:165 108:35 109:17 110:165 111:25 112:9 113:165 114:25 115:9 116:165 117:24 118:8 119:166 120:37 121:26 122:166 123:38 124:23 125:167 126:39 127:22 128:166 129:34 130:12 131:164 132:35 133:9 134:165 135:36 136:8 137:164 138:36 139:8 140:166 141:20 142:5 143:168 144:38 145:23 146:165 147:39 148:22 149:166 150:38 151:17 152:164 153:34 154:13 155:163 156:35 157:9 158:164 159:36 160:8 161:164 162:30 163:3 164:166 165:20 166:5 167:170 168:39 169:22 170:165 171:39 172:22 173:165 174:38 175:17 176:164 177:40 178:14 179:164 180:43 181:11 182:163 183:36 184:8 185:168 186:36 187:8 188:169 189:30 190:3 191:168 192:-1 
1.409510699591901e-10 0:101 1:12 2:166 3:90 4:10 5:160 6:66 7:8 8:163 9:55 10:9 11:171 12:51 13:10 14:175 15:48 16:14 17:176 18:38 19:16 20:176 21:45 22:17 23:178 24:66 25:8 26:170 27:55 28:9 29:175 30:43 31:10 32:179 33:40 34:13 35:178 36:38 37:16 38:175 39:39 40:20 41:175 42:39 43:20 44:180 45:39 46:20 47:180 48:43 49:10 50:177 51:43 52:10 53:177 54:34 55:12 56:176 57:35 58:16 59:174 60:35 61:19 62:176 63:34 64:20 65:182 66:34 67:20 68:178 69:34 70:20 71:178 72:35 73:9 74:179 75:34 76:12 77:177 78:34 79:12 80:177 81:35 82:16 83:178 84:35 85:19 86:177 87:35 88:19 89:178 90:35 91:19 92:178 93:35 94:19 95:178 96:36 97:7 98:175 99:35 100:9 101:176 102:35 103:8 104:181 105:34 106:11 107:184 108:34 109:11 110:183 111:35 112:15 113:183 114:35 115:15 116:183 117:35 118:15 119:183 120:36 121:7 122:181 123:36 124:7 125:182 126:36 127:7 128:184 129:35 130:8 131:183 132:35 133:8 134:183 135:35 136:8 137:185 138:35 139:8 140:184 141:43 142:10 143:186 144:50 145:4 146:183 147:50 148:4 149:185 150:50 151:4 152:186 153:42 154:7 155:186 156:42 157:7 158:185 159:42 160:7 161:185 162:42 163:7 164:184 165:55 166:8 167:187 168:50 169:4 170:184 171:50 172:4 173:186 174:50 175:4 176:187 177:50 178:4 179:187 180:50 181:4 182:186 183:66 184:7 185:187 186:66 187:7 188:186 189:66 190:7 191:187 192:-1 
1.567943825720152e-10 0:85 1:15 2:209 3:85 4:15 5:209 6:90 7:17 8:209 9:92 10:18 11:210 12:95 13:20 14:213 15:95 16:20 17:212 18:95 19:16 20:210 21:95 22:16 23:210 24:90 25:15 26:209 27:90 28:15 29:209 30:92 31:18 32:210 33:92 34:18 35:211 36:95 37:20 38:213 39:95 40:20 41:212 42:92 43:18 44:211 45:92 46:18 47:211 48:90 49:15 50:210 51:90 52:15 53:210 54:92 55:18 56:212 57:92 58:18 59:212 60:95 61:20 62:214 63:92 64:18 65:211 66:92 67:18 68:211 69:92 70:18 71:211 72:95 73:16 74:212 75:95 76:16 77:212 78:98 79:18 80:214 81:95 82:20 83:215 84:92 85:18 86:212 87:90 88:19 89:211 90:92 91:18 92:212 93:90 94:17 95:211 96:95 97:16 98:212 99:95 100:16 101:212 102:98 103:18 104:214 105:95 106:20 107:214 108:92 109:18 110:212 111:90 112:19 113:212 114:90 115:17 116:211 117:90 118:17 119:211 120:98 121:18 122:215 123:98 124:18 125:214 126:101 127:20 128:216 129:95 130:20 131:214 132:92 133:18 134:213 135:90 136:19 137:212 138:88 139:19 140:213 141:84 142:19 143:213 144:98 145:18 146:215 147:98 148:18 149:215 150:101 151:20 152:217 153:95 154:20 155:215 156:95 157:20 158:216 159:90 160:19 161:213 162:88 163:19 164:214 165:84 166:18 167:213 168:99 169:22 170:216 171:99 172:23 173:215 174:99 175:22 176:217 177:95 178:20 179:217 180:95 181:20 182:215 183:92 184:18 185:212 186:92 187:18 188:212 189:90 190:15 191:211 192:-1 
-1.796946039603997e-10 0:90 1:8 2:196 3:80 4:8 5:184 6:70 7:8 8:186 9:70 10:8 11:188 12:73 13:13 14:183 15:73 16:12 17:187 18:73 19:12 20:188 21:80 22:12 23:189 24:70 25:8 26:185 27:70 28:8 29:181 30:60 31:10 32:182 33:60 34:10 35:182 36:60 37:9 38:189 39:60 40:10 41:185 42:66 43:14 44:188 45:73 46:12 47:188 48:60 49:10 50:184 51:60 52:10 53:177 54:60 55:10 56:179 57:60 58:10 59:184 60:56 61:11 62:184 63:56 64:11 65:187 66:66 67:13 68:190 69:66 70:14 71:188 72:66 73:14 74:180 75:63 76:14 77:183 78:63 79:14 80:184 81:63 82:13 83:189 84:63 85:14 86:186 87:63 88:13 89:190 90:66 91:13 92:189 93:66 94:13 95:189 96:63 97:14 98:180 99:65 100:16 101:191 102:63 103:14 104:188 105:65 106:16 107:187 108:63 109:14 110:188 111:66 112:14 113:186 114:66 115:14 116:184 117:73 118:12 119:188 120:68 121:15 122:190 123:69 124:18 125:189 126:68 127:15 128:189 129:69 130:18 131:186 132:68 133:15 134:188 135:68 136:15 137:188 138:74 139:15 140:188 141:79 142:15 143:192 144:74 145:17 146:196 147:71 148:22 149:189 150:74 151:18 152:184 153:69 154:18 155:182 156:74 157:18 158:182 159:74 160:18 161:187 162:79 163:15 164:190 165:87 166:14 167:184 168:80 169:20 170:191 171:76 172:23 173:189 174:80 175:21 176:186 177:76 178:21 179:185 180:80 181:21 182:186 183:80 184:21 185:184 186:85 187:17 188:184 189:90 190:17 191:175 192:-1 
-1.064954155164953e-11 0:80 1:13 2:117 3:80 4:11 5:137 6:66 7:8 8:157 9:66 10:7 11:180 12:66 13:7 14:184 15:66 16:7 17:187 18:70 19:8 20:184 21:60 22:10 23:182 24:80 25:10 26:148 27:70 28:10 29:158 30:66 31:7 32:183 33:66 34:7 35:188 36:66 37:7 38:190 39:66 40:7 41:186 42:60 43:10 44:177 45:60 46:10 47:178 48:66 49:7 50:172 51:66 52:7 53:188 54:50 55:4 56:188 57:42 58:7 59:180 60:55 61:9 62:180 63:55 64:8 65:184 66:60 67:10 68:181 69:60 70:10 71:181 72:60 73:9 74:190 75:55 76:8 77:184 78:55 79:8 80:182 81:51 82:10 83:180 84:60 85:10 86:185 87:56 88:11 89:186 90:60 91:10 92:187 93:66 94:14 95:186 96:56 97:11 98:183 99:63 100:14 101:183 102:63 103:14 104:181 105:57 106:15 107:184 108:63 109:14 110:187 111:57 112:15 113:191 114:63 115:14 116:188 117:65 118:16 119:188 120:63 121:14 122:188 123:57 124:15 125:186 126:60 127:16 128:189 129:60 130:16 131:187 132:60 133:16 134:189 135:60 136:16 137:191 138:60 139:16 140:195 141:60 142:16 143:195 144:68 145:15 146:188 147:65 148:16 149:186 150:57 151:15 152:189 153:57 154:15 155:186 156:54 157:19 158:189 159:54 160:18 161:194 162:54 163:18 164:197 165:57 166:14 167:196 168:68 169:15 170:188 171:68 172:15 173:186 174:63 175:14 176:188 177:57 178:15 179:187 180:57 181:15 182:188 183:57 184:14 185:196 186:57 187:14 188:196 189:63 190:13 191:204 192:-1 
-5.684062328574718e-12 0:42 1:9 2:140 3:42 4:8 5:157 6:50 7:4 8:171 9:75 10:3 11:190 12:75 13:3 14:188 15:75 16:3 17:191 18:42 19:7 20:187 21:43 22:10 23:184 24:35 25:17 26:168 27:35 28:19 29:177 30:35 31:18 32:187 33:40 34:12 35:188 36:43 37:9 38:190 39:43 40:9 41:189 42:42 43:7 44:184 45:51 46:10 47:184 48:35 49:18 50:180 51:34 52:19 53:186 54:38 55:21 56:186 57:38 58:15 59:185 60:40 61:12 62:187 63:43 64:10 65:184 66:43 67:10 68:184 69:55 70:8 71:187 72:40 73:12 74:188 75:40 76:12 77:187 78:43 79:10 80:184 81:42 82:7 83:183 84:55 85:8 86:186 87:66 88:7 89:185 90:55 91:8 92:185 93:43 94:10 95:187 96:51 97:10 98:183 99:55 100:8 101:183 102:55 103:8 104:183 105:66 106:7 107:179 108:66 109:7 110:186 111:55 112:8 113:187 114:51 115:10 116:186 117:38 118:15 119:186 120:63 121:14 122:182 123:66 124:13 125:192 126:66 127:14 128:187 129:66 130:14 131:188 132:56 133:11 134:184 135:52 136:15 137:188 138:43 139:19 140:188 141:37 142:23 143:190 144:65 145:16 146:188 147:65 148:16 149:191 150:68 151:15 152:191 153:68 154:15 155:189 156:63 157:13 158:192 159:57 160:15 161:191 162:46 163:20 164:194 165:43 166:21 167:197 168:65 169:16 170:196 171:65 172:16 173:193 174:65 175:16 176:196 177:68 178:15 179:191 180:74 181:14 182:194 183:68 184:14 185:194 186:66 187:13 188:198 189:63 190:13 191:192 192:-1 
-5.429562260755005e-11 0:38 1:16 2:176 3:45 4:17 5:185 6:43 7:19 8:187 9:46 10:20 11:187 12:46 13:20 14:190 15:46 16:21 17:185 18:48 19:18 20:186 21:48 22:18 23:185 24:38 25:15 26:184 27:45 28:16 29:193 30:45 31:16 32:187 33:48 34:18 35:189 36:48 37:18 38:183 39:54 40:19 41:189 42:54 43:19 44:185 45:54 46:19 47:191 48:45 49:16 50:186 51:48 52:18 53:188 54:48 55:18 56:186 57:54 58:20 59:182 60:57 61:15 62:186 63:54 64:20 65:180 66:54 67:19 68:188 69:54 70:20 71:183 72:45 73:17 74:179 75:48 76:18 77:185 78:52 79:15 80:184 81:57 82:15 83:183 84:63 85:14 86:186 87:60 88:16 89:192 90:60 91:16 92:188 93:60 94:16 95:191 96:48 97:19 98:179 99:57 100:15 101:184 102:63 103:14 104:184 105:68 106:15 107:188 108:68 109:15 110:186 111:65 112:16 113:186 114:65 115:16 116:193 117:65 118:15 119:199 120:52 121:15 122:187 123:57 124:15 125:182 126:66 127:14 128:185 129:74 130:15 131:186 132:74 133:15 134:188 135:74 136:17 137:196 138:69 139:17 140:197 141:69 142:16 143:202 144:57 145:15 146:187 147:63 148:14 149:185 150:74 151:15 152:189 153:74 154:17 155:191 156:80 157:16 158:193 159:80 160:16 161:194 162:74 163:16 164:204 165:69 166:17 167:197 168:63 169:14 170:186 171:63 172:13 173:192 174:74 175:14 176:195 177:80 178:15 179:199 180:85 181:15 182:202 183:80 184:18 185:208 186:76 187:20 188:192 189:76 190:21 191:182 192:-1 
-1.328825325307609e-11 0:35 1:9 2:168 3:43 4:10 5:187 6:43 7:10 8:187 9:43 10:9 11:196 12:40 13:12 14:190 15:38 16:15 17:190 18:39 19:19 20:187 21:39 22:18 23:193 24:36 25:6 26:203 27:42 28:7 29:193 30:42 31:7 32:190 33:43 34:9 35:190 36:40 37:12 38:192 39:38 40:15 41:192 42:39 43:19 44:192 45:39 46:18 47:195 48:35 49:8 50:193 51:43 52:9 53:192 54:43 55:9 56:190 57:40 58:12 59:193 60:38 61:15 62:189 63:38 64:15 65:190 66:39 67:18 68:193 69:39 70:18 71:193 72:35 73:18 74:188 75:39 76:19 77:191 78:39 79:19 80:188 81:35 82:17 83:192 84:35 85:18 86:189 87:35 88:17 89:190 90:35 91:17 92:193 93:35 94:15 95:193 96:34 97:19 98:189 99:38 100:21 101:184 102:38 103:20 104:190 105:38 106:20 107:189 108:34 109:18 110:197 111:35 112:17 113:195 114:35 115:14 116:197 117:34 118:10 119:199 120:39 121:18 122:193 123:39 124:19 125:192 126:39 127:19 128:190 129:39 130:19 131:192 132:39 133:19 134:191 135:38 136:14 137:194 138:38 139:14 140:199 141:40 142:12 143:198 144:39 145:18 146:195 147:38 148:15 149:192 150:45 151:16 152:195 153:45 154:15 155:199 156:45 157:15 158:200 159:48 160:13 161:201 162:48 163:13 164:196 165:51 166:9 167:193 168:45 169:16 170:194 171:48 172:13 173:194 174:52 175:14 176:194 177:52 178:14 179:201 180:52 181:14 182:207 183:56 184:10 185:195 186:60 187:10 188:177 189:60 190:11 191:160 192:-1 
-1.411970144493665e-11 0:96 1:13 2:194 3:90 4:8 5:188 6:96 7:7 8:192 9:96 10:7 11:189 12:103 13:10 14:187 15:101 16:11 17:179 18:103 19:15 20:157 21:98 22:20 23:138 24:95 25:16 26:195 27:98 28:14 29:195 30:103 31:12 32:190 33:103 34:12 35:193 36:109 37:11 38:190 39:109 40:11 41:190 42:109 43:13 44:155 45:103 46:14 47:162 48:105 49:23 50:202 51:108 52:21 53:204 54:112 55:19 56:200 57:116 58:18 59:202 60:120 61:13 62:198 63:125 64:14 65:203 66:124 67:11 68:194 69:125 70:8 71:192 72:106 73:26 74:217 75:109 76:26 77:208 78:111 79:25 80:206 81:113 82:20 83:204 84:116 85:18 86:208 87:120 88:15 89:200 90:125 91:14 92:207 93:124 94:10 95:205 96:110 97:31 98:216 99:110 100:31 101:216 102:111 103:28 104:209 105:111 106:28 107:206 108:109 109:27 110:199 111:110 112:24 113:194 114:108 115:22 116:197 117:106 118:19 119:201 120:109 121:35 122:212 123:109 124:36 125:208 126:107 127:34 128:209 129:106 130:34 131:197 132:105 133:33 134:184 135:102 136:31 137:182 138:101 139:31 140:173 141:101 142:24 143:179 144:107 145:41 146:185 147:107 148:38 149:203 150:107 151:38 152:195 153:104 154:34 155:202 156:102 157:33 158:178 159:100 160:32 161:178 162:98 163:28 164:179 165:95 166:23 167:188 168:105 169:54 170:152 171:103 172:42 173:175 174:103 175:38 176:195 177:100 178:33 179:196 180:99 181:30 182:202 183:98 184:26 185:193 186:95 187:23 188:189 189:92 190:20 191:187 192:-1 
-6.22374019282582e-13 0:96 1:25 2:102 3:96 4:22 5:117 6:101 7:15 8:138 9:96 10:8 11:159 12:0 13:0 14:181 15:20 16:4 17:194 18:24 19:6 20:201 21:24 22:6 23:200 24:96 25:18 26:140 27:96 28:15 29:169 30:96 31:14 32:186 33:90 34:8 35:202 36:83 37:5 38:197 39:50 40:4 41:199 42:36 43:6 44:200 45:36 46:7 47:192 48:96 49:17 50:153 51:87 52:13 53:174 54:87 55:12 56:196 57:80 58:12 59:198 60:70 61:8 62:198 63:66 64:7 65:195 66:42 67:7 68:194 69:42 70:7 71:189 72:90 73:8 74:185 75:87 76:11 77:206 78:87 79:13 80:197 81:79 82:14 83:197 84:73 85:12 86:195 87:73 88:12 89:193 90:60 91:9 92:193 93:55 94:8 95:192 96:90 97:8 98:198 99:80 100:12 101:196 102:80 103:12 104:196 105:79 106:14 107:197 108:74 109:14 110:194 111:74 112:15 113:193 114:73 115:12 116:192 117:70 118:8 119:192 120:80 121:8 122:201 123:80 124:11 125:200 126:80 127:12 128:193 129:73 130:12 131:190 132:74 133:14 134:194 135:74 136:14 137:195 138:74 139:14 140:196 141:80 142:12 143:196 144:83 145:5 146:192 147:80 148:8 149:189 150:70 151:8 152:193 153:73 154:12 155:193 156:73 157:12 158:193 159:79 160:14 161:194 162:79 163:14 164:196 165:87 166:13 167:197 168:66 169:7 170:194 171:66 172:7 173:193 174:66 175:7 176:188 177:70 178:8 179:196 180:80 181:8 182:190 183:80 184:12 185:194 186:87 187:13 188:197 189:93 190:14 191:203 192:-1 
-5.847506430492728e-11 0:70 1:13 2:119 3:70 4:11 5:139 6:60 7:12 8:154 9:60 10:10 11:171 12:56 13:11 14:185 15:52 16:15 17:187 18:48 19:13 20:194 21:48 22:14 23:188 24:70 25:10 26:149 27:70 28:10 29:160 30:60 31:10 32:174 33:56 34:11 35:187 36:52 37:15 38:191 39:52 40:15 41:190 42:48 43:13 44:192 45:48 46:13 47:194 48:73 49:12 50:187 51:73 52:12 53:190 54:60 55:9 56:190 57:56 58:11 59:193 60:52 61:14 62:195 63:52 64:15 65:192 66:52 67:15 68:188 69:52 70:15 71:193 72:73 73:12 74:196 75:66 76:13 77:201 78:60 79:9 80:199 81:56 82:10 83:195 84:52 85:14 86:194 87:52 88:15 89:193 90:52 91:14 92:198 93:52 94:15 95:186 96:73 97:12 98:194 99:66 100:13 101:193 102:60 103:9 104:197 105:56 106:11 107:193 108:52 109:15 110:189 111:52 112:15 113:193 114:63 115:14 116:186 117:63 118:13 119:193 120:73 121:12 122:195 123:66 124:13 125:193 126:60 127:9 128:192 129:56 130:11 131:191 132:52 133:15 134:190 135:52 136:15 137:191 138:63 139:13 140:196 141:63 142:13 143:190 144:70 145:8 146:191 147:60 148:9 149:197 150:60 151:9 152:193 153:56 154:11 155:192 156:56 157:10 158:195 159:56 160:11 161:192 162:63 163:13 164:195 165:63 166:13 167:197 168:70 169:8 170:190 171:66 172:7 173:189 174:55 175:8 176:188 177:55 178:8 179:189 180:55 181:8 182:192 183:56 184:10 185:197 186:56 187:10 188:200 189:66 190:13 191:194 192:-1 
-2.218051527276304e-11 0:83 1:8 2:123 3:83 4:8 5:136 6:80 7:10 8:154 9:70 10:8 11:181 12:60 13:9 14:200 15:56 16:10 17:202 18:52 19:14 20:205 21:48 22:16 23:201 24:96 25:8 26:151 27:83 28:6 29:173 30:80 31:8 32:192 33:70 34:8 35:200 36:66 37:13 38:200 39:63 40:13 41:195 42:52 43:15 44:192 45:48 46:17 47:198 48:75 49:3 50:179 51:83 52:6 53:185 54:83 55:5 56:188 57:70 58:8 59:196 60:70 61:8 62:186 63:60 64:10 65:187 66:56 67:11 68:188 69:52 70:15 71:187 72:36 73:7 74:192 75:36 76:7 77:194 78:30 79:3 80:191 81:50 82:4 83:190 84:66 85:7 86:190 87:66 88:7 89:193 90:55 91:8 92:189 93:55 94:8 95:192 96:24 97:7 98:195 99:36 100:7 101:191 102:30 103:3 104:187 105:50 106:4 107:192 108:66 109:7 110:194 111:66 112:7 113:195 114:66 115:7 116:194 117:55 118:8 119:200 120:0 121:0 122:191 123:75 124:3 125:184 126:66 127:7 128:193 129:66 130:7 131:195 132:60 133:9 134:198 135:60 136:9 137:202 138:60 139:9 140:198 141:51 142:9 143:201 144:75 145:3 146:187 147:83 148:5 149:190 150:66 151:7 152:196 153:60 154:9 155:196 156:56 157:10 158:205 159:63 160:12 161:211 162:56 163:10 164:210 165:56 166:10 167:211 168:50 169:4 170:197 171:66 172:6 173:200 174:66 175:6 176:205 177:60 178:8 179:211 180:63 181:12 182:212 183:65 184:14 185:217 186:63 187:12 188:214 189:63 190:12 191:218 192:-1 
-2.752838114230241e-11 0:95 1:15 2:202 3:104 4:16 5:202 6:104 7:17 8:199 9:106 10:16 11:175 12:111 13:17 14:154 15:111 16:19 17:137 18:113 19:25 20:122 21:111 22:28 23:120 24:101 25:21 26:203 27:101 28:18 29:196 30:104 31:16 32:201 33:98 34:14 35:203 36:103 37:13 38:174 39:103 40:14 41:163 42:103 43:17 44:132 45:103 46:21 47:110 48:101 49:27 50:200 51:101 52:21 53:203 54:101 55:18 56:196 57:98 58:14 59:196 60:96 61:13 62:202 63:90 64:9 65:180 66:90 67:9 68:171 69:101 70:14 71:146 72:102 73:29 74:202 75:101 76:26 77:206 78:98 79:19 80:198 81:95 82:15 83:202 84:87 85:12 86:199 87:80 88:11 89:200 90:80 91:8 92:184 93:80 94:9 95:163 96:103 97:30 98:212 99:102 100:29 101:205 102:99 103:23 104:207 105:95 106:16 107:202 108:93 109:14 110:201 111:80 112:11 113:201 114:80 115:7 116:205 117:80 118:8 119:183 120:101 121:34 122:204 123:102 124:28 125:211 126:101 127:26 128:206 129:98 130:19 131:204 132:95 133:15 134:199 135:87 136:12 137:197 138:80 139:8 140:201 141:80 142:8 143:200 144:103 145:36 146:204 147:101 148:34 149:205 150:102 151:26 152:212 153:101 154:26 155:206 156:101 157:18 158:200 159:93 160:14 161:196 162:90 163:8 164:195 165:80 166:8 167:197 168:103 169:41 170:179 171:101 172:35 173:198 174:105 175:30 176:203 177:102 178:26 179:212 180:103 181:20 182:208 183:101 184:18 185:202 186:101 187:10 188:198 189:90 190:8 191:194 192:-1 
