svm_type c_svc
kernel_type polynomial
degree 3
gamma 0.00520833
coef0 0
nr_class 2
total_sv 11
rho -3.79594
label 1 -1
nr_sv 5 6
SV
2.954937803845979e-12 0:111 1:17 2:196 3:111 4:17 5:196 6:111 7:17 8:196 9:111 10:17 11:196 12:111 13:17 14:196 15:111 16:17 17:196 18:111 19:17 20:196 21:112 22:19 23:199 24:111 25:17 26:197 27:111 28:17 29:197 30:111 31:17 32:197 33:111 34:17 35:196 36:111 37:17 38:196 39:112 40:19 41:197 42:112 43:19 44:198 45:112 46:19 47:198 48:106 49:15 50:193 51:106 52:14 53:195 54:106 55:14 56:194 57:111 58:17 59:195 60:111 61:17 62:194 63:112 64:20 65:196 66:112 67:19 68:197 69:113 70:21 71:199 72:103 73:12 74:190 75:106 76:14 77:194 78:106 79:15 80:192 81:106 82:15 83:191 84:111 85:17 86:193 87:111 88:17 89:193 90:112 91:20 92:196 93:112 94:19 95:197 96:101 97:11 98:190 99:103 100:12 101:190 102:103 103:12 104:189 105:103 106:12 107:187 108:106 109:15 110:189 111:111 112:13 113:190 114:113 115:16 116:193 117:113 118:16 119:194 120:101 121:11 122:189 123:101 124:11 125:189 126:101 127:11 128:188 129:103 130:12 131:188 132:103 133:12 134:188 135:109 136:11 137:188 138:111 139:13 140:190 141:111 142:13 143:190 144:101 145:11 146:189 147:101 148:11 149:190 150:101 151:11 152:190 153:101 154:11 155:190 156:101 157:11 158:189 159:103 160:9 161:188 162:109 163:11 164:188 165:109 166:11 167:189 168:101 169:11 170:191 171:101 172:11 173:191 174:101 175:11 176:192 177:101 178:11 179:192 180:101 181:11 182:191 183:103 184:9 185:190 186:103 187:9 188:190 189:103 190:9 191:191 192:-1 
1.566672564148514e-12 0:110 1:5 2:167 3:110 4:5 5:168 6:120 7:3 8:167 9:120 10:3 11:165 12:120 13:3 14:164 15:120 16:3 17:163 18:120 19:3 20:163 21:120 22:3 23:165 24:110 25:5 26:167 27:110 28:5 29:168 30:120 31:3 32:166 33:120 34:3 35:165 36:120 37:3 38:166 39:120 40:3 41:165 42:0 43:0 44:163 45:0 46:0 47:164 48:83 49:6 50:166 51:83 52:6 53:167 54:75 55:3 56:166 57:75 58:3 59:165 60:75 61:3 62:166 63:75 64:3 65:166 66:75 67:3 68:166 69:0 70:0 71:166 72:83 73:6 74:168 75:83 76:6 77:168 78:75 79:3 80:166 81:75 82:3 83:166 84:75 85:3 86:168 87:75 88:3 89:167 90:75 91:3 92:166 93:75 94:3 95:167 96:83 97:6 98:169 99:83 100:6 101:169 102:83 103:6 104:167 105:83 106:6 107:166 108:75 109:3 110:168 111:75 112:3 113:167 114:75 115:3 116:165 117:75 118:3 119:165 120:83 121:6 122:171 123:83 124:6 125:171 126:83 127:6 128:168 129:83 130:6 131:167 132:75 133:3 134:168 135:75 136:3 137:167 138:75 139:3 140:165 141:110 142:5 143:165 144:96 145:7 146:172 147:96 148:7 149:172 150:110 151:5 152:170 153:110 154:5 155:169 156:110 157:5 158:170 159:110 160:5 161:168 162:110 163:5 164:166 165:110 166:5 167:166 168:96 169:7 170:172 171:96 172:7 173:172 174:110 175:4 176:171 177:110 178:5 179:170 180:110 181:5 182:170 183:96 184:8 185:169 186:110 187:5 188:167 189:110 190:5 191:167 192:-1 
3.767383275182063e-11 0:18 1:29 2:149 3:16 4:26 5:149 6:14 7:22 8:149 9:14 10:22 11:148 12:14 13:22 14:148 15:14 16:23 17:147 18:14 19:22 20:148 21:16 22:25 23:150 24:18 25:29 26:150 27:18 28:29 29:150 30:14 31:22 32:150 33:14 34:22 35:149 36:14 37:23 38:147 39:14 40:23 41:147 42:14 43:22 44:148 45:14 46:22 47:150 48:18 49:29 50:150 51:18 52:29 53:151 54:14 55:22 56:150 57:14 58:22 59:149 60:14 61:22 62:148 63:14 64:22 65:148 66:14 67:22 68:149 69:14 70:22 71:150 72:18 73:29 74:149 75:16 76:25 77:150 78:14 79:22 80:150 81:14 82:22 83:149 84:14 85:23 86:147 87:14 88:23 89:147 90:14 91:22 92:148 93:14 94:22 95:149 96:16 97:26 98:148 99:16 100:26 101:148 102:14 103:22 104:149 105:14 106:22 107:149 108:14 109:23 110:146 111:14 112:23 113:146 114:8 115:19 116:147 117:8 118:19 119:148 120:18 121:29 122:147 123:16 124:26 125:148 126:16 127:26 128:149 129:14 130:22 131:149 132:14 133:22 134:148 135:14 136:23 137:147 138:8 139:19 140:147 141:8 142:19 143:148 144:23 145:27 146:150 147:22 148:26 149:149 150:21 151:22 152:149 153:21 154:22 155:149 156:16 157:19 158:146 159:16 160:20 161:143 162:16 163:19 164:147 165:16 166:19 167:149 168:23 169:27 170:149 171:22 172:26 173:149 174:21 175:22 176:149 177:21 178:22 179:148 180:16 181:19 182:148 183:16 184:19 185:146 186:16 187:19 188:149 189:16 190:19 191:151 192:-1 
4.271447053782116e-12 0:43 1:61 2:126 3:41 4:55 5:126 6:40 7:50 8:138 9:37 10:45 11:130 12:34 13:43 14:126 15:33 16:39 17:136 18:32 19:32 20:143 21:28 22:33 23:148 24:37 25:52 26:108 27:38 28:43 29:120 30:37 31:33 32:131 33:37 34:30 35:144 36:38 37:26 38:149 39:38 40:24 41:157 42:39 43:24 44:151 45:38 46:16 47:176 48:32 49:36 50:128 51:35 52:32 53:136 54:38 55:27 56:144 57:39 58:21 59:168 60:45 61:18 62:167 63:52 64:16 65:174 66:52 67:16 68:180 69:56 70:11 71:178 72:28 73:33 74:149 75:32 76:24 77:168 78:34 79:20 80:183 81:45 82:16 83:192 84:52 85:15 86:189 87:63 88:13 89:191 90:65 91:17 92:182 93:69 94:19 95:174 96:28 97:26 98:183 99:32 100:23 101:180 102:35 103:18 104:188 105:38 106:15 107:187 108:48 109:14 110:181 111:56 112:12 113:167 114:66 115:17 116:154 117:68 118:17 119:162 120:34 121:20 122:179 123:30 124:18 125:173 126:30 127:16 128:160 129:30 130:13 131:152 132:25 133:11 134:137 135:25 136:12 137:124 138:35 139:12 140:127 141:42 142:10 143:130 144:45 145:20 146:152 147:40 148:15 149:155 150:34 151:15 152:139 153:25 154:11 155:136 156:19 157:16 158:130 159:19 160:16 161:130 162:19 163:17 164:123 165:19 166:14 167:141 168:67 169:24 170:140 171:66 172:19 173:135 174:60 175:13 176:133 177:43 178:14 179:130 180:35 181:12 182:132 183:25 184:12 185:129 186:21 187:19 188:135 189:21 190:20 191:127 192:-1 
9.883167650345648e-11 0:35 1:19 2:146 3:35 4:20 5:143 6:30 7:17 8:149 9:30 10:20 11:153 12:26 13:24 14:157 15:26 16:24 17:159 18:23 19:25 20:164 21:26 22:28 23:157 24:30 25:20 26:155 27:35 28:21 29:159 30:32 31:22 32:160 33:26 34:24 35:157 36:25 37:28 38:162 39:25 40:28 41:162 42:25 43:28 44:165 45:25 46:28 47:165 48:32 49:26 50:160 51:32 52:26 53:159 54:28 55:30 56:161 57:28 58:30 59:162 60:26 61:32 62:161 63:22 64:34 65:163 66:22 67:33 68:169 69:21 70:29 71:176 72:32 73:28 74:162 75:32 76:28 77:162 78:29 79:33 80:163 81:29 82:33 83:164 84:26 85:34 86:164 87:24 88:37 89:166 90:21 91:34 92:172 93:19 94:30 95:177 96:33 97:32 98:167 99:33 100:32 101:167 102:29 103:32 104:167 105:29 106:34 107:167 108:27 109:35 110:167 111:26 112:33 113:168 114:22 115:33 116:172 117:21 118:29 119:174 120:33 121:32 122:169 123:33 124:32 125:170 126:29 127:32 128:169 129:29 130:33 131:168 132:29 133:33 134:168 135:26 136:33 137:170 138:25 139:27 140:169 141:23 142:24 143:168 144:33 145:32 146:168 147:34 148:32 149:169 150:33 151:32 152:169 153:33 154:32 155:168 156:33 157:32 158:169 159:28 160:29 161:169 162:26 163:23 164:167 165:26 166:22 167:164 168:32 169:28 170:166 171:35 172:29 173:168 174:35 175:29 176:168 177:35 178:29 179:168 180:32 181:27 182:168 183:35 184:26 185:170 186:30 187:18 188:166 189:35 190:17 191:165 192:-1 
-9.92736999100498e-13 0:11 1:22 2:164 3:11 4:22 5:163 6:16 7:24 8:160 9:23 10:19 11:160 12:30 13:17 14:148 15:40 16:16 17:148 18:40 19:16 20:145 21:35 22:12 23:128 24:14 25:20 26:166 27:14 28:21 29:161 30:16 31:18 32:157 33:21 34:16 35:158 36:30 37:12 38:166 39:30 40:13 41:157 42:30 43:13 44:153 45:21 46:16 47:159 48:13 49:14 50:167 51:13 52:14 53:167 54:13 55:14 56:169 57:19 58:12 59:164 60:21 61:15 62:166 63:21 64:15 65:165 66:21 67:15 68:166 69:16 70:16 71:174 72:13 73:10 74:172 75:13 76:10 77:171 78:13 79:11 80:165 81:11 82:12 83:168 84:13 85:14 86:163 87:13 88:13 89:171 90:13 91:13 92:173 93:14 94:19 95:174 96:6 97:7 98:174 99:173 100:6 101:176 102:6 103:8 104:168 105:0 106:9 107:167 108:11 109:12 110:169 111:6 112:15 113:172 114:8 115:16 116:172 117:14 118:19 119:179 120:165 121:3 122:173 123:156 124:7 125:178 126:173 127:6 128:171 129:170 130:9 131:174 132:177 133:13 134:173 135:3 136:16 137:174 138:5 139:17 140:175 141:11 142:20 143:175 144:140 145:5 146:164 147:140 148:4 149:175 150:140 151:4 152:175 153:173 154:6 155:172 156:0 157:9 158:174 159:6 160:14 161:178 162:6 163:15 164:172 165:8 166:16 167:177 168:110 169:5 170:154 171:110 172:5 173:162 174:110 175:4 176:178 177:0 178:0 179:175 180:20 181:4 182:174 183:13 184:10 185:173 186:13 187:10 188:172 189:13 190:13 191:175 192:-1 
-2.922086072492693e-11 0:13 1:25 2:162 3:14 4:30 5:162 6:11 7:32 8:169 9:12 10:35 11:169 12:15 13:37 14:166 15:15 16:36 17:171 18:15 19:29 20:174 21:15 22:33 23:153 24:14 25:21 26:161 27:11 28:23 29:157 30:8 31:24 32:161 33:8 34:24 35:159 36:5 37:26 38:166 39:5 40:26 41:167 42:8 43:22 44:173 45:8 46:20 47:188 48:13 49:14 50:161 51:13 52:15 53:155 54:13 55:15 56:155 57:8 58:18 59:159 60:3 61:18 62:156 63:3 64:18 65:158 66:5 67:18 68:167 69:11 70:21 71:169 72:25 73:10 74:152 75:25 76:10 77:151 78:24 79:9 80:149 81:24 82:8 83:152 84:24 85:9 86:148 87:19 88:13 89:153 90:16 91:18 92:158 93:21 94:20 95:168 96:30 97:14 98:142 99:30 100:14 101:146 102:34 103:14 104:141 105:35 106:11 107:144 108:36 109:9 110:143 111:36 112:9 113:148 114:30 115:14 116:151 117:23 118:19 119:159 120:26 121:24 122:158 123:26 124:26 125:146 126:26 127:27 128:143 129:30 130:18 131:140 132:36 133:9 134:141 135:30 136:4 137:138 138:25 139:10 140:146 141:21 142:16 143:159 144:22 145:28 146:197 147:21 148:28 149:183 150:21 151:29 152:176 153:22 154:23 155:169 156:25 157:10 158:153 159:24 160:8 161:157 162:30 163:14 164:142 165:26 166:22 167:159 168:17 169:36 170:198 171:15 172:28 173:216 174:15 175:25 176:201 177:15 178:24 179:192 180:16 181:21 182:184 183:22 184:23 185:168 186:23 187:25 188:162 189:26 190:32 191:160 192:-1 
-2.46153003017159e-11 0:23 1:23 2:180 3:20 4:26 5:180 6:21 7:28 8:181 9:19 10:29 11:186 12:19 13:28 14:190 15:20 16:24 17:188 18:18 19:22 20:199 21:16 22:21 23:181 24:26 25:24 26:178 27:25 28:26 29:176 30:21 31:29 32:178 33:19 34:29 35:182 36:21 37:28 38:183 39:21 40:27 41:188 42:21 43:27 44:187 45:18 46:23 47:191 48:28 49:27 50:181 51:26 52:29 53:177 54:25 55:26 56:175 57:21 58:29 59:177 60:21 61:29 62:176 63:22 64:32 65:176 66:26 67:30 68:186 69:21 70:28 71:183 72:28 73:27 74:182 75:26 76:29 77:177 78:25 79:26 80:175 81:20 82:26 83:177 84:20 85:26 86:175 87:26 88:29 89:174 90:26 91:32 92:176 93:26 94:28 95:185 96:26 97:24 98:179 99:25 100:26 101:177 102:23 103:23 104:177 105:18 106:24 107:177 108:22 109:22 110:174 111:26 112:25 113:173 114:28 115:28 116:173 117:28 118:28 119:174 120:26 121:23 122:163 123:22 124:22 125:174 126:22 127:23 128:163 129:16 130:21 131:178 132:21 133:19 134:175 135:26 136:21 137:173 138:32 139:21 140:172 141:32 142:21 143:172 144:26 145:26 146:139 147:23 148:20 149:154 150:21 151:16 152:157 153:16 154:17 155:169 156:21 157:15 158:173 159:25 160:9 161:174 162:34 163:12 164:174 165:34 166:12 167:172 168:30 169:15 170:137 171:19 172:14 173:142 174:19 175:13 176:156 177:19 178:12 179:175 180:13 181:10 182:173 183:36 184:7 185:177 186:36 187:7 188:177 189:30 190:3 191:173 192:-1 
-5.928781123626774e-12 0:52 1:28 2:101 3:48 4:25 5:101 6:38 7:24 8:118 9:35 10:22 11:130 12:30 13:17 14:148 15:23 16:18 17:169 18:23 19:17 20:179 21:30 22:13 23:190 24:45 25:26 26:117 27:38 28:22 29:126 30:35 31:25 32:132 33:30 34:20 35:156 36:30 37:18 38:174 39:30 40:14 41:183 42:30 43:14 44:187 45:34 46:11 47:189 48:39 49:25 50:143 51:35 52:22 53:152 54:35 55:19 56:171 57:35 58:19 59:177 60:35 61:15 62:186 63:35 64:15 65:191 66:40 67:12 68:191 69:51 70:9 71:193 72:35 73:20 74:165 75:35 76:16 77:176 78:35 79:16 80:178 81:35 82:16 83:177 84:40 85:12 86:189 87:51 88:10 89:186 90:56 91:11 92:194 93:68 94:15 95:189 96:35 97:16 98:176 99:35 100:16 101:176 102:34 103:12 104:177 105:40 106:12 107:190 108:56 109:11 110:190 111:66 112:13 113:194 114:74 115:18 116:182 117:76 118:23 119:170 120:30 121:11 122:179 123:34 124:11 125:181 126:43 127:10 128:184 129:55 130:8 131:182 132:73 133:12 134:185 135:76 136:22 137:175 138:81 139:29 140:167 141:80 142:37 143:144 144:43 145:10 146:179 147:42 148:7 149:181 150:55 151:9 152:180 153:73 154:13 155:183 156:74 157:16 158:171 159:80 160:24 161:162 162:81 163:34 164:143 165:83 166:46 167:116 168:74 169:15 170:181 171:74 172:15 173:182 174:74 175:16 176:178 177:79 178:17 179:168 180:80 181:19 182:158 183:85 184:22 185:138 186:84 187:34 188:113 189:90 190:28 191:111 192:-1 
-1.387107852111159e-11 0:66 1:13 2:102 3:83 4:10 5:100 6:75 7:6 8:90 9:75 10:5 11:104 12:0 13:0 14:108 15:0 16:0 17:135 18:165 19:4 20:145 21:20 22:5 23:166 24:80 25:15 26:99 27:83 28:12 29:87 30:83 31:9 32:114 33:75 34:4 35:117 36:75 37:3 38:152 39:30 40:3 41:162 42:30 43:3 44:178 45:36 46:7 47:192 48:73 49:24 50:94 51:70 52:14 53:110 54:70 55:11 56:138 57:55 58:10 59:150 60:55 61:9 62:178 63:43 64:10 65:184 66:43 67:9 68:189 69:40 70:12 71:194 72:66 73:19 74:136 75:60 76:12 77:152 78:60 79:11 80:163 81:56 82:11 83:183 84:56 85:11 86:189 87:56 88:10 89:200 90:52 91:14 92:199 93:52 94:15 95:193 96:43 97:11 98:169 99:51 100:10 101:179 102:51 103:9 104:193 105:55 106:8 107:200 108:60 109:9 110:197 111:60 112:9 113:199 114:63 115:13 116:202 117:65 118:16 119:197 120:35 121:8 122:185 123:43 124:9 125:202 126:43 127:9 128:195 129:55 130:8 131:195 132:60 133:9 134:196 135:73 136:12 137:193 138:74 139:16 140:179 141:74 142:19 143:177 144:34 145:11 146:189 147:43 148:9 149:195 150:51 151:9 152:202 153:60 154:9 155:189 156:73 157:12 158:185 159:80 160:18 161:169 162:80 163:24 164:162 165:84 166:27 167:144 168:40 169:12 170:194 171:51 172:9 173:195 174:60 175:10 176:180 177:73 178:13 179:178 180:79 181:18 182:155 183:85 184:21 185:145 186:84 187:30 188:128 189:90 190:32 191:113 192:-1 
-7.066980900657204e-11 0:25 1:28 2:166 3:23 4:27 5:152 6:26 7:23 8:154 9:23 10:20 11:156 12:21 13:16 14:158 15:21 16:16 17:159 18:30 19:13 20:155 21:30 22:14 23:150 24:16 25:24 26:159 27:14 28:22 29:151 30:8 31:18 32:153 33:8 34:18 35:154 36:13 37:15 38:154 39:13 40:15 41:156 42:19 43:13 44:157 45:21 46:16 47:157 48:14 49:22 50:153 51:11 52:23 53:155 54:5 55:21 56:149 57:5 58:20 59:151 60:8 61:18 62:152 63:13 64:15 65:152 66:13 67:15 68:154 69:19 70:13 71:154 72:18 73:26 74:170 75:15 76:28 77:165 78:15 79:28 80:164 81:15 82:30 83:151 84:16 85:26 86:149 87:21 88:22 89:151 90:13 91:15 92:155 93:19 94:13 95:155 96:18 97:24 98:180 99:20 100:26 101:176 102:20 103:26 104:176 105:20 106:28 107:166 108:18 109:27 110:161 111:21 112:21 113:156 114:16 115:18 116:154 117:13 118:12 119:152 120:23 121:18 122:172 123:26 124:19 125:186 126:22 127:21 128:184 129:22 130:22 131:177 132:21 133:20 134:169 135:21 136:21 137:159 138:16 139:18 140:155 141:11 142:13 143:153 144:34 145:12 146:167 147:35 148:17 149:169 150:30 151:14 152:179 153:23 154:17 155:180 156:23 157:18 158:172 159:16 160:17 161:163 162:8 163:17 164:162 165:6 166:16 167:161 168:43 169:12 170:151 171:40 172:14 173:168 174:34 175:12 176:170 177:34 178:12 179:177 180:30 181:12 182:175 183:21 184:15 185:170 186:8 187:17 188:168 189:3 190:17 191:165 192:-1 
